{"learner":{"attributes":{"scikit_learn":"{\"_estimator_type\": \"regressor\"}"},"feature_names":[],"feature_types":[],"gradient_booster":{"model":{"cats":{"enc":[],"feature_segments":[],"sorted_idx":[]},"gbtree_model_param":{"num_parallel_tree":"1","num_trees":"100"},"iteration_indptr":[0,1,2,3,4,5,6,7,8,9,10,11,12,13,14,15,16,17,18,19,20,21,22,23,24,25,26,27,28,29,30,31,32,33,34,35,36,37,38,39,40,41,42,43,44,45,46,47,48,49,50,51,52,53,54,55,56,57,58,59,60,61,62,63,64,65,66,67,68,69,70,71,72,73,74,75,76,77,78,79,80,81,82,83,84,85,86,87,88,89,90,91,92,93,94,95,96,97,98,99,100],"tree_info":[0,0,0,0,0,0,0,0,0,0,0,0,0,0,0,0,0,0,0,0,0,0,0,0,0,0,0,0,0,0,0,0,0,0,0,0,0,0,0,0,0,0,0,0,0,0,0,0,0,0,0,0,0,0,0,0,0,0,0,0,0,0,0,0,0,0,0,0,0,0,0,0,0,0,0,0,0,0,0,0,0,0,0,0,0,0,0,0,0,0,0,0,0,0,0,0,0,0,0,0],"trees":[{"base_weights":[-7.479983E-9,-1.7082456E-1,3.3666366E-1,-2.4671362E-1,2.5096321E-2,3.0200052E-1,4.0828767E-1,-3.43381E-1,-1.8748888E-1,2.1846991E-2,3.783089E-2,2.5764108E-1,3.2485837E-1,4.3986517E-1,3.871292E-1,-3.480563E-1,-3.3645812E-1,-1.8125303E-1,-1.9468892E-1,2.4384214E-2,1.1463848E-2,3.823236E-2,-2.5060058E-1,2.587821E-1,-1.8853506E-1,3.3316234E-1,2.851497E-1,4.0761426E-1,4.527048E-1,3.81918E-1,4.502381E-1,-1.8308979E-2,-3.480846E-2,-3.389907E-2,-3.3400677E-2,-1.7863432E-2,-1.847225E-2,-2.794799E-2,-1.9437483E-2,2.3986935E-3,8.071396E-3,1.3769105E-3,1.9414186E-4,3.254768E-3,4.8055905E-3,-2.9104192E-2,1.0687369E-2,2.6478622E-2,2.4632884E-2,3.9825365E-2,-2.6210714E-2,3.1647414E-2,3.4131154E-2,2.8630886E-2,-1.4767741E-2,4.5721244E-2,4.0154207E-2,2.9165402E-2,4.5439906E-2,3.6646515E-2,3.9863493E-2,5.6028783E-2,4.080217E-2],"categories":[],"categories_nodes":[],"categories_segments":[],"categories_sizes":[],"default_left":[0,0,0,0,0,0,0,0,0,0,0,0,0,0,0,0,0,0,0,0,0,0,0,0,0,0,0,0,0,0,0,0,0,0,0,0,0,0,0,0,0,0,0,0,0,0,0,0,0,0,0,0,0,0,0,0,0,0,0,0,0,0,0],"id":0,"left_children":[1,3,5,7,9,11,13,15,17,19,21,23,25,27,29,31,33,35,37,39,41,43,45,47,49,51,53,55,57,59,61,-1,-1,-1,-1,-1,-1,-1,-1,-1,-1,-1,-1,-1,-1,-1,-1,-1,-1,-1,-1,-1,-1,-1,-1,-1,-1,-1,-1,-1,-1,-1,-1],"loss_changes":[4.600845E4,7.8908096E3,6.684414E2,2.1900137E3,6.1305237E0,1.8391992E2,5.8504883E1,4.5878906E0,1.0615234E1,3.1098251E0,3.497509E0,3.1467285E1,3.9393555E1,1.4402344E1,1.7124023E1,3.4277344E-1,2.5097656E-1,1.121582E0,2.8774414E0,2.1211739E0,5.0892234E-1,1.678215E0,6.3828754E-1,4.5375977E0,6.925444E0,1.3359375E1,1.0437378E1,2.840454E0,6.7402344E0,1.240625E1,1.8382812E1,0E0,0E0,0E0,0E0,0E0,0E0,0E0,0E0,0E0,0E0,0E0,0E0,0E0,0E0,0E0,0E0,0E0,0E0,0E0,0E0,0E0,0E0,0E0,0E0,0E0,0E0,0E0,0E0,0E0,0E0,0E0,0E0],"parents":[2147483647,0,0,1,1,2,2,3,3,4,4,5,5,6,6,7,7,8,8,9,9,10,10,11,11,12,12,13,13,14,14,15,15,16,16,17,17,18,18,19,19,20,20,21,21,22,22,23,23,24,24,25,25,26,26,27,27,28,28,29,29,30,30],"right_children":[2,4,6,8,10,12,14,16,18,20,22,24,26,28,30,32,34,36,38,40,42,44,46,48,50,52,54,56,58,60,62,-1,-1,-1,-1,-1,-1,-1,-1,-1,-1,-1,-1,-1,-1,-1,-1,-1,-1,-1,-1,-1,-1,-1,-1,-1,-1,-1,-1,-1,-1,-1,-1],"split_conditions":[3E1,1.5E1,1.52E2,5E0,2.5E1,5.2E1,4.241774E6,3E0,8.335533E7,4.8799892E7,7E0,9E0,1.5422696E7,2.37E2,2.0169161E-2,7.7102465E6,4.2727275E0,6.311633E7,2E0,2.0169161E-2,6.490522E7,5.0833335E0,3.6E0,2.4882846E7,1.7691104E7,4.952381E0,1E1,2.826694E6,3.9E0,2.22E2,9.705635E-1,-1.8308979E-2,-3.480846E-2,-3.389907E-2,-3.3400677E-2,-1.7863432E-2,-1.847225E-2,-2.794799E-2,-1.9437483E-2,2.3986935E-3,8.071396E-3,1.3769105E-3,1.9414186E-4,3.254768E-3,4.8055905E-3,-2.9104192E-2,1.0687369E-2,2.6478622E-2,2.4632884E-2,3.9825365E-2,-2.6210714E-2,3.1647414E-2,3.4131154E-2,2.8630886E-2,-1.4767741E-2,4.5721244E-2,4.0154207E-2,2.9165402E-2,4.5439906E-2,3.6646515E-2,3.9863493E-2,5.6028783E-2,4.080217E-2],"split_indices":[0,0,0,0,0,0,6,0,6,6,7,7,6,0,4,6,2,6,2,4,6,2,2,6,6,2,7,6,2,0,4,0,0,0,0,0,0,0,0,0,0,0,0,0,0,0,0,0,0,0,0,0,0,0,0,0,0,0,0,0,0,0,0],"split_type":[0,0,0,0,0,0,0,0,0,0,0,0,0,0,0,0,0,0,0,0,0,0,0,0,0,0,0,0,0,0,0,0,0,0,0,0,0,0,0,0,0,0,0,0,0,0,0,0,0,0,0,0,0,0,0,0,0,0,0,0,0,0,0],"sum_hessian":[8E5,5.30714E5,2.69286E5,3.82539E5,1.48175E5,1.81468E5,8.7818E4,1.45328E5,2.37211E5,1.18055E5,3.012E4,6.1714E4,1.19754E5,3.5226E4,5.2592E4,8.6716E4,5.8612E4,1.27131E5,1.1008E5,9.4871E4,2.3184E4,3.0079E4,4.1E1,6.1557E4,1.57E2,9.9036E4,2.0718E4,1.004E4,2.5186E4,4.8587E4,4.005E3,1.6E1,8.67E4,2.8761E4,2.9851E4,7.2478E4,5.4653E4,4.03E2,1.09677E5,9.4208E4,6.63E2,1.8665E4,4.519E3,1.9056E4,1.1023E4,3.7E1,4E0,4.1519E4,2.0038E4,1.7E1,1.4E2,3.2507E4,6.6529E4,2.0663E4,5.5E1,1.087E3,8.953E3,2.64E2,2.4922E4,2.526E4,2.3327E4,1.107E3,2.898E3],"tree_param":{"num_deleted":"0","num_feature":"9","num_nodes":"63","size_leaf_vector":"1"}},{"base_weights":[3.37577E-7,-1.5374248E-1,3.0299908E-1,-2.2204278E-1,2.2586698E-2,2.7180126E-1,3.6746272E-1,-3.090437E-1,-1.6874033E-1,1.9662391E-2,3.404745E-2,2.3187801E-1,2.9237318E-1,3.9793867E-1,3.495762E-1,-3.1325126E-1,-3.0281344E-1,-1.6474253E-1,-1.7823645E-1,2.2958541E-2,1.29409535E-2,3.440939E-2,-2.25979E-1,2.329811E-1,-1.4651775E-1,2.9984674E-1,2.566354E-1,3.834637E-1,4.2338952E-1,3.448151E-1,4.0719306E-1,-1.658578E-2,-3.1327657E-2,-3.0509278E-2,-3.0060718E-2,-1.6077114E-2,-1.6778773E-2,-2.2300158E-2,-1.7753115E-2,2.2517876E-3,8.18421E-3,1.0580048E-3,2.237775E-3,3.0831767E-3,4.7527E-3,-2.627036E-2,9.832378E-3,2.2393968E-2,2.4034766E-2,-2.5481267E-2,2.1537531E-2,2.9706383E-2,3.447541E-2,2.5767935E-2,-1.3317338E-2,3.7945073E-2,4.3144923E-2,2.5509113E-2,4.2610098E-2,3.5217863E-2,3.1167908E-2,5.0626654E-2,3.686935E-2],"categories":[],"categories_nodes":[],"categories_segments":[],"categories_sizes":[],"default_left":[0,0,0,0,0,0,0,0,0,0,0,0,0,0,0,0,0,0,0,0,0,0,0,0,0,0,0,0,0,0,0,0,0,0,0,0,0,0,0,0,0,0,0,0,0,0,0,0,0,0,0,0,0,0,0,0,0,0,0,0,0,0,0],"id":1,"left_children":[1,3,5,7,9,11,13,15,17,19,21,23,25,27,29,31,33,35,37,39,41,43,45,47,49,51,53,55,57,59,61,-1,-1,-1,-1,-1,-1,-1,-1,-1,-1,-1,-1,-1,-1,-1,-1,-1,-1,-1,-1,-1,-1,-1,-1,-1,-1,-1,-1,-1,-1,-1,-1],"loss_changes":[3.72672E4,6.391585E3,5.4146875E2,1.7739238E3,4.9654083E0,1.4897266E2,4.7731445E1,3.7158203E0,8.976074E0,2.615219E0,2.8425636E0,2.579419E1,3.1907227E1,1.1800781E1,1.504248E1,2.705078E-1,2.03125E-1,1.9916992E0,2.178955E0,2.0534973E0,8.652501E-1,1.410183E0,5.2604556E-1,4.0446777E0,7.1092906E0,1.2275391E1,8.465942E0,3.824463E0,5.2592773E0,1.2365723E1,1.5905762E1,0E0,0E0,0E0,0E0,0E0,0E0,0E0,0E0,0E0,0E0,0E0,0E0,0E0,0E0,0E0,0E0,0E0,0E0,0E0,0E0,0E0,0E0,0E0,0E0,0E0,0E0,0E0,0E0,0E0,0E0,0E0,0E0],"parents":[2147483647,0,0,1,1,2,2,3,3,4,4,5,5,6,6,7,7,8,8,9,9,10,10,11,11,12,12,13,13,14,14,15,15,16,16,17,17,18,18,19,19,20,20,21,21,22,22,23,23,24,24,25,25,26,26,27,27,28,28,29,29,30,30],"right_children":[2,4,6,8,10,12,14,16,18,20,22,24,26,28,30,32,34,36,38,40,42,44,46,48,50,52,54,56,58,60,62,-1,-1,-1,-1,-1,-1,-1,-1,-1,-1,-1,-1,-1,-1,-1,-1,-1,-1,-1,-1,-1,-1,-1,-1,-1,-1,-1,-1,-1,-1,-1,-1],"split_conditions":[3E1,1.5E1,1.52E2,5E0,2.5E1,5.2E1,4.104758E6,3E0,1.0294753E8,4.3265464E7,7E0,8E0,1.5422696E7,3.42E2,2.0169161E-2,7.7102465E6,4.2727275E0,6.311633E7,2.5E0,2.0169161E-2,5.1904764E0,5.448363E0,3.6E0,3.8E1,5.4920635E0,2.0169161E-2,1E1,2.0169161E-2,3.9E0,7.4830055E6,9.705635E-1,-1.658578E-2,-3.1327657E-2,-3.0509278E-2,-3.0060718E-2,-1.6077114E-2,-1.6778773E-2,-2.2300158E-2,-1.7753115E-2,2.2517876E-3,8.18421E-3,1.0580048E-3,2.237775E-3,3.0831767E-3,4.7527E-3,-2.627036E-2,9.832378E-3,2.2393968E-2,2.4034766E-2,-2.5481267E-2,2.1537531E-2,2.9706383E-2,3.447541E-2,2.5767935E-2,-1.3317338E-2,3.7945073E-2,4.3144923E-2,2.5509113E-2,4.2610098E-2,3.5217863E-2,3.1167908E-2,5.0626654E-2,3.686935E-2],"split_indices":[0,0,0,0,0,0,6,0,6,6,7,7,6,0,4,6,2,6,2,4,2,2,2,0,2,4,7,4,2,6,4,0,0,0,0,0,0,0,0,0,0,0,0,0,0,0,0,0,0,0,0,0,0,0,0,0,0,0,0,0,0,0,0],"split_type":[0,0,0,0,0,0,0,0,0,0,0,0,0,0,0,0,0,0,0,0,0,0,0,0,0,0,0,0,0,0,0,0,0,0,0,0,0,0,0,0,0,0,0,0,0,0,0,0,0,0,0,0,0,0,0,0,0,0,0,0,0,0,0],"sum_hessian":[8E5,5.30714E5,2.69286E5,3.82539E5,1.48175E5,1.81468E5,8.7818E4,1.45328E5,2.37211E5,1.18055E5,3.012E4,6.1714E4,1.19754E5,3.2471E4,5.5347E4,8.6716E4,5.8612E4,1.66946E5,7.0265E4,7.9209E4,3.8846E4,3.0079E4,4.1E1,6.1535E4,1.79E2,9.9036E4,2.0718E4,2.0709E4,1.1762E4,5.1129E4,4.218E3,1.6E1,8.67E4,2.8761E4,2.9851E4,7.2478E4,9.4468E4,1.085E3,6.918E4,7.8622E4,5.87E2,3.1074E4,7.772E3,2.3636E4,6.443E3,3.7E1,4E0,2.7641E4,3.3894E4,1.38E2,4.1E1,9.3264E4,5.772E3,2.0663E4,5.5E1,1.9119E4,1.59E3,1.88E2,1.1574E4,4.1825E4,9.304E3,1.177E3,3.041E3],"tree_param":{"num_deleted":"0","num_feature":"9","num_nodes":"63","size_leaf_vector":"1"}},{"base_weights":[6.126069E-7,-1.3836856E-1,2.7270073E-1,-1.9983898E-1,2.032807E-2,2.4239366E-1,3.26563E-1,-2.781401E-1,-1.5186661E-1,1.8086856E-2,3.279806E-2,2.086909E-1,2.611953E-1,3.0063587E-1,3.4748143E-1,-2.819267E-1,-2.7253312E-1,-1.4826848E-1,-1.6041337E-1,1.9988777E-2,7.76713E-3,2.7397102E-2,3.9751492E-2,2.0968375E-1,-1.3188791E-1,2.681194E-1,2.3093027E-1,2.9615235E-1,3.4941018E-1,3.5911325E-1,3.128789E-1,-1.5024768E-2,-2.8194925E-2,-2.7476242E-2,-2.7070502E-2,-1.4469425E-2,-1.5100914E-2,-1.6359467E-2,-1.5074717E-2,1.9613816E-3,7.1167103E-3,8.1080786E-4,-2.071488E-2,2.759282E-3,-2.010207E-2,3.7926987E-3,1.0545576E-2,2.0831494E-2,2.500965E-2,-2.2951473E-2,1.9435057E-2,2.538465E-2,2.766115E-2,2.3196591E-2,-9.482306E-3,2.9778207E-2,2.191619E-2,4.463597E-2,3.232009E-2,3.89049E-2,3.512003E-2,3.2033436E-2,2.8252712E-2],"categories":[],"categories_nodes":[],"categories_segments":[],"categories_sizes":[],"default_left":[0,0,0,0,0,0,0,0,0,0,0,0,0,0,0,0,0,0,0,0,0,0,0,0,0,0,0,0,0,0,0,0,0,0,0,0,0,0,0,0,0,0,0,0,0,0,0,0,0,0,0,0,0,0,0,0,0,0,0,0,0,0,0],"id":2,"left_children":[1,3,5,7,9,11,13,15,17,19,21,23,25,27,29,31,33,35,37,39,41,43,45,47,49,51,53,55,57,59,61,-1,-1,-1,-1,-1,-1,-1,-1,-1,-1,-1,-1,-1,-1,-1,-1,-1,-1,-1,-1,-1,-1,-1,-1,-1,-1,-1,-1,-1,-1,-1,-1],"loss_changes":[3.018671E4,5.177208E3,4.3950586E2,1.4368867E3,4.1406097E0,1.09143555E2,5.248242E1,3.008789E0,7.2714844E0,2.4651108E0,8.4664345E-1,2.0895996E1,2.3118164E1,9.366211E0,2.1484375E1,2.1533203E-1,1.6455078E-1,1.6132812E0,2.1361084E0,2.033821E0,1.4340633E0,5.73658E-1,1.1787157E0,3.352295E0,5.7775383E0,1.0839844E1,6.97229E0,4.911621E0,9.104889E0,9.374512E0,2.9659424E0,0E0,0E0,0E0,0E0,0E0,0E0,0E0,0E0,0E0,0E0,0E0,0E0,0E0,0E0,0E0,0E0,0E0,0E0,0E0,0E0,0E0,0E0,0E0,0E0,0E0,0E0,0E0,0E0,0E0,0E0,0E0,0E0],"parents":[2147483647,0,0,1,1,2,2,3,3,4,4,5,5,6,6,7,7,8,8,9,9,10,10,11,11,12,12,13,13,14,14,15,15,16,16,17,17,18,18,19,19,20,20,21,21,22,22,23,23,24,24,25,25,26,26,27,27,28,28,29,29,30,30],"right_children":[2,4,6,8,10,12,14,16,18,20,22,24,26,28,30,32,34,36,38,40,42,44,46,48,50,52,54,56,58,60,62,-1,-1,-1,-1,-1,-1,-1,-1,-1,-1,-1,-1,-1,-1,-1,-1,-1,-1,-1,-1,-1,-1,-1,-1,-1,-1,-1,-1,-1,-1,-1,-1],"split_conditions":[3E1,1.5E1,1.35E2,5E0,2.6E1,5.2E1,2.22E2,3E0,1.0294753E8,5.076965E7,4.962185E0,8E0,1.5422696E7,2.0169161E-2,5.215993E6,7.7102465E6,4.0333333E0,6.311633E7,4.8461537E0,2.0169161E-2,7E0,7E0,2.0169161E-2,2.0169161E-2,5.4920635E0,5.095238E0,9E0,1.258092E7,9.705635E-1,2.826694E6,7.4830055E6,-1.5024768E-2,-2.8194925E-2,-2.7476242E-2,-2.7070502E-2,-1.4469425E-2,-1.5100914E-2,-1.6359467E-2,-1.5074717E-2,1.9613816E-3,7.1167103E-3,8.1080786E-4,-2.071488E-2,2.759282E-3,-2.010207E-2,3.7926987E-3,1.0545576E-2,2.0831494E-2,2.500965E-2,-2.2951473E-2,1.9435057E-2,2.538465E-2,2.766115E-2,2.3196591E-2,-9.482306E-3,2.9778207E-2,2.191619E-2,4.463597E-2,3.232009E-2,3.89049E-2,3.512003E-2,3.2033436E-2,2.8252712E-2],"split_indices":[0,0,0,0,0,0,0,0,6,6,2,7,6,4,6,6,2,6,2,4,7,7,4,4,2,2,7,6,4,6,6,0,0,0,0,0,0,0,0,0,0,0,0,0,0,0,0,0,0,0,0,0,0,0,0,0,0,0,0,0,0,0,0],"split_type":[0,0,0,0,0,0,0,0,0,0,0,0,0,0,0,0,0,0,0,0,0,0,0,0,0,0,0,0,0,0,0,0,0,0,0,0,0,0,0,0,0,0,0,0,0,0,0,0,0,0,0,0,0,0,0,0,0,0,0,0,0,0,0],"sum_hessian":[8E5,5.30714E5,2.69286E5,3.82539E5,1.48175E5,1.72327E5,9.6959E4,1.45328E5,2.37211E5,1.25603E5,2.2572E4,6.1714E4,1.10613E5,4.3303E4,5.3656E4,8.6716E4,5.8612E4,1.66946E5,7.0265E4,1.06056E5,1.9547E4,1.2707E4,9.865E3,6.1535E4,1.79E2,9.0012E4,2.0601E4,3.9664E4,3.639E3,4.015E4,1.3506E4,1.6E1,8.67E4,2.6341E4,3.2271E4,7.2478E4,9.4468E4,5.2854E4,1.7411E4,1.05286E5,7.7E2,1.9517E4,3E1,1.2697E4,1E1,9.6E3,2.65E2,5.9525E4,2.01E3,1.38E2,4.1E1,3.3589E4,5.6423E4,2.0536E4,6.5E1,3.8839E4,8.25E2,7.71E2,2.868E3,8.384E3,3.1766E4,1.0835E4,2.671E3],"tree_param":{"num_deleted":"0","num_feature":"9","num_nodes":"63","size_leaf_vector":"1"}},{"base_weights":[8.0381795E-7,-1.2453203E-1,2.4543205E-1,-1.798555E-1,1.829517E-2,2.2009708E-1,2.9778138E-1,-2.5032675E-1,-1.366802E-1,2.124064E-2,1.0548111E-2,1.8782249E-1,2.3672774E-1,3.330053E-1,2.868071E-1,-2.537345E-1,-2.4528074E-1,-1.3242617E-1,-1.4266625E-1,2.079774E-2,6.712093E-2,1.0698727E-2,-1.8176565E-1,1.8871611E-1,-1.1871864E-1,2.4276002E-1,2.0788205E-1,3.1800547E-1,3.5177505E-1,2.9772732E-1,2.6798862E-1,-1.3610671E-2,-2.5375465E-2,-2.4528734E-2,7.081199E-3,-1.3254861E-2,-8.540603E-3,-1.4551177E-2,-1.3546305E-2,1.9059563E-3,3.153458E-3,-2.485612E-2,7.8191245E-3,8.776718E-4,1.8719396E-3,1.0560411E-2,-2.1513507E-2,1.9383635E-2,1.7809005E-2,3.0970454E-2,-1.8033266E-2,2.4032991E-2,2.8197715E-2,2.0873558E-2,-1.1078088E-2,3.1418514E-2,3.5913877E-2,1.7515786E-2,3.5419386E-2,2.93411E-2,3.5135206E-2,2.7020458E-2,1.8310932E-2],"categories":[],"categories_nodes":[],"categories_segments":[],"categories_sizes":[],"default_left":[0,0,0,0,0,0,0,0,0,0,0,0,0,0,0,0,0,0,0,0,0,0,0,0,0,0,0,0,0,0,0,0,0,0,0,0,0,0,0,0,0,0,0,0,0,0,0,0,0,0,0,0,0,0,0,0,0,0,0,0,0,0,0],"id":3,"left_children":[1,3,5,7,9,11,13,15,17,19,21,23,25,27,29,31,33,35,37,39,41,43,45,47,49,51,53,55,57,59,61,-1,-1,-1,-1,-1,-1,-1,-1,-1,-1,-1,-1,-1,-1,-1,-1,-1,-1,-1,-1,-1,-1,-1,-1,-1,-1,-1,-1,-1,-1,-1,-1],"loss_changes":[2.445146E4,4.193552E3,3.5708008E2,1.1638887E3,3.3809624E0,9.7359375E1,3.3851562E1,2.4365234E0,6.0219727E0,2.1801414E0,1.1843204E0,1.6927734E1,2.078711E1,5.76001E0,1.3681641E1,1.7089844E-1,1.3964844E-1,7.8686523E-1,2E0,1.9838219E0,3.604998E0,6.286311E-1,3.2957876E-1,3.3137207E0,4.807287E0,9.370605E0,5.6585083E0,1.7103271E0,3.8911133E0,9.703369E0,4.5775146E0,0E0,0E0,0E0,0E0,0E0,0E0,0E0,0E0,0E0,0E0,0E0,0E0,0E0,0E0,0E0,0E0,0E0,0E0,0E0,0E0,0E0,0E0,0E0,0E0,0E0,0E0,0E0,0E0,0E0,0E0,0E0,0E0],"parents":[2147483647,0,0,1,1,2,2,3,3,4,4,5,5,6,6,7,7,8,8,9,9,10,10,11,11,12,12,13,13,14,14,15,15,16,16,17,17,18,18,19,19,20,20,21,21,22,22,23,23,24,24,25,25,26,26,27,27,28,28,29,29,30,30],"right_children":[2,4,6,8,10,12,14,16,18,20,22,24,26,28,30,32,34,36,38,40,42,44,46,48,50,52,54,56,58,60,62,-1,-1,-1,-1,-1,-1,-1,-1,-1,-1,-1,-1,-1,-1,-1,-1,-1,-1,-1,-1,-1,-1,-1,-1,-1,-1,-1,-1,-1,-1,-1,-1],"split_conditions":[3E1,1.5E1,1.52E2,5E0,4.3265464E7,5.2E1,3.5338288E6,3E0,8.845077E7,2.0169161E-2,8E0,8E0,1.5422696E7,3.42E2,5.8568835E6,7.7102465E6,9.966216E-1,2.0169161E-2,4.857143E0,2.7E1,3.6E0,5.1904764E0,1.6E1,2.4882846E7,1.7691104E7,2.0169161E-2,1E1,2.0169161E-2,3.9E0,3.5812672E-2,1.3171933E7,-1.3610671E-2,-2.5375465E-2,-2.4528734E-2,7.081199E-3,-1.3254861E-2,-8.540603E-3,-1.4551177E-2,-1.3546305E-2,1.9059563E-3,3.153458E-3,-2.485612E-2,7.8191245E-3,8.776718E-4,1.8719396E-3,1.0560411E-2,-2.1513507E-2,1.9383635E-2,1.7809005E-2,3.0970454E-2,-1.8033266E-2,2.4032991E-2,2.8197715E-2,2.0873558E-2,-1.1078088E-2,3.1418514E-2,3.5913877E-2,1.7515786E-2,3.5419386E-2,2.93411E-2,3.5135206E-2,2.7020458E-2,1.8310932E-2],"split_indices":[0,0,0,0,6,0,6,0,6,4,7,7,6,0,6,6,4,4,2,0,2,2,0,6,6,4,7,4,2,4,6,0,0,0,0,0,0,0,0,0,0,0,0,0,0,0,0,0,0,0,0,0,0,0,0,0,0,0,0,0,0,0,0],"split_type":[0,0,0,0,0,0,0,0,0,0,0,0,0,0,0,0,0,0,0,0,0,0,0,0,0,0,0,0,0,0,0,0,0,0,0,0,0,0,0,0,0,0,0,0,0,0,0,0,0,0,0,0,0,0,0,0,0,0,0,0,0,0,0],"sum_hessian":[8E5,5.30714E5,2.69286E5,3.82539E5,1.48175E5,1.81468E5,8.7818E4,1.45328E5,2.37211E5,1.07356E5,4.0819E4,6.1714E4,1.19754E5,2.0854E4,6.6964E4,8.6716E4,5.8612E4,1.3868E5,9.8531E4,1.06331E5,1.025E3,4.0788E4,3.1E1,6.1535E4,1.79E2,9.9036E4,2.0718E4,1.1601E4,9.253E3,4.2365E4,2.4599E4,1.6E1,8.67E4,5.8611E4,1E0,1.38318E5,3.62E2,7.0616E4,2.7915E4,9.1518E4,1.4813E4,3.4E1,9.91E2,3.2905E4,7.883E3,3E0,2.8E1,4.1514E4,2.0021E4,2.2E1,1.57E2,9.3264E4,5.772E3,2.0663E4,5.5E1,1.0623E4,9.78E2,1.26E2,9.127E3,3.9215E4,3.15E3,2.3971E4,6.28E2],"tree_param":{"num_deleted":"0","num_feature":"9","num_nodes":"63","size_leaf_vector":"1"}},{"base_weights":[9.879869E-7,-1.1207907E-1,2.208901E-1,-1.6187024E-1,1.6465522E-2,1.9627087E-1,2.6464385E-1,-2.2529447E-1,-1.2301241E-1,1.4231332E-2,2.5221648E-2,1.6904105E-1,2.1146145E-1,2.4289532E-1,2.8219113E-1,-2.2900005E-1,-2.2148025E-1,-1.203297E-1,-1.3099429E-1,1.581707E-2,6.1254967E-3,2.5489211E-2,-1.6700563E-1,1.698451E-1,-1.06774904E-1,1.9515997E-1,2.2054115E-1,2.3912734E-1,2.838882E-1,2.9175216E-1,2.5374907E-1,-6.7002415E-3,-2.2901673E-2,-2.2343026E-2,-2.2001812E-2,-1.1803507E-2,-1.2384021E-2,-1.9882975E-2,-1.305342E-2,1.5545939E-3,5.4662596E-3,2.8704724E-4,1.2308733E-3,2.1162012E-3,3.2967252E-3,-1.9536091E-2,8.1895655E-3,1.6198449E-2,1.7625056E-2,-1.8882483E-2,1.6731355E-2,1.8375037E-2,2.0949448E-2,2.2686517E-2,1.9019557E-2,1.1993398E-2,2.3990465E-2,3.7165042E-2,2.6017392E-2,2.8189091E-2,3.0971885E-2,2.4982499E-2,3.0630568E-2],"categories":[],"categories_nodes":[],"categories_segments":[],"categories_sizes":[],"default_left":[0,0,0,0,0,0,0,0,0,0,0,0,0,0,0,0,0,0,0,0,0,0,0,0,0,0,0,0,0,0,0,0,0,0,0,0,0,0,0,0,0,0,0,0,0,0,0,0,0,0,0,0,0,0,0,0,0,0,0,0,0,0,0],"id":4,"left_children":[1,3,5,7,9,11,13,15,17,19,21,23,25,27,29,31,33,35,37,39,41,43,45,47,49,51,53,55,57,59,61,-1,-1,-1,-1,-1,-1,-1,-1,-1,-1,-1,-1,-1,-1,-1,-1,-1,-1,-1,-1,-1,-1,-1,-1,-1,-1,-1,-1,-1,-1,-1,-1],"loss_changes":[1.9805861E4,3.3967832E3,2.900205E2,9.427529E2,2.898384E0,7.124512E1,3.6933594E1,2.003418E0,5.0637207E0,1.5173626E0,1.5534744E0,1.3704712E1,1.6329102E1,6.6208496E0,1.4517578E1,1.8359375E-1,1.5478516E-1,1.4157715E0,1.8361206E0,1.0391006E0,3.8877004E-1,9.7266006E-1,3.124212E-1,3.0698242E0,4.0796013E0,6.4346924E0,1.3589111E1,3.6462402E0,7.478943E0,7.0266113E0,2.7090454E0,0E0,0E0,0E0,0E0,0E0,0E0,0E0,0E0,0E0,0E0,0E0,0E0,0E0,0E0,0E0,0E0,0E0,0E0,0E0,0E0,0E0,0E0,0E0,0E0,0E0,0E0,0E0,0E0,0E0,0E0,0E0,0E0],"parents":[2147483647,0,0,1,1,2,2,3,3,4,4,5,5,6,6,7,7,8,8,9,9,10,10,11,11,12,12,13,13,14,14,15,15,16,16,17,17,18,18,19,19,20,20,21,21,22,22,23,23,24,24,25,25,26,26,27,27,28,28,29,29,30,30],"right_children":[2,4,6,8,10,12,14,16,18,20,22,24,26,28,30,32,34,36,38,40,42,44,46,48,50,52,54,56,58,60,62,-1,-1,-1,-1,-1,-1,-1,-1,-1,-1,-1,-1,-1,-1,-1,-1,-1,-1,-1,-1,-1,-1,-1,-1,-1,-1,-1,-1,-1,-1,-1,-1],"split_conditions":[3E1,1.5E1,1.35E2,5E0,2.5E1,5.2E1,2.22E2,2E0,1.0948232E8,5.076965E7,7E0,8E0,4.888889E0,2.0169161E-2,5.215993E6,4.241774E6,4.0333333E0,7.559786E7,2E0,2.0169161E-2,1.8E1,5.0833335E0,3.6E0,3.8E1,5.4920635E0,8.1E1,5.909091E0,3.65E0,9.705635E-1,3.42E2,2.0169161E-2,-6.7002415E-3,-2.2901673E-2,-2.2343026E-2,-2.2001812E-2,-1.1803507E-2,-1.2384021E-2,-1.9882975E-2,-1.305342E-2,1.5545939E-3,5.4662596E-3,2.8704724E-4,1.2308733E-3,2.1162012E-3,3.2967252E-3,-1.9536091E-2,8.1895655E-3,1.6198449E-2,1.7625056E-2,-1.8882483E-2,1.6731355E-2,1.8375037E-2,2.0949448E-2,2.2686517E-2,1.9019557E-2,1.1993398E-2,2.3990465E-2,3.7165042E-2,2.6017392E-2,2.8189091E-2,3.0971885E-2,2.4982499E-2,3.0630568E-2],"split_indices":[0,0,0,0,0,0,0,0,6,6,7,7,2,4,6,6,2,6,2,4,0,2,2,0,2,0,2,2,4,0,4,0,0,0,0,0,0,0,0,0,0,0,0,0,0,0,0,0,0,0,0,0,0,0,0,0,0,0,0,0,0,0,0],"split_type":[0,0,0,0,0,0,0,0,0,0,0,0,0,0,0,0,0,0,0,0,0,0,0,0,0,0,0,0,0,0,0,0,0,0,0,0,0,0,0,0,0,0,0,0,0,0,0,0,0,0,0,0,0,0,0,0,0,0,0,0,0,0,0],"sum_hessian":[8E5,5.30714E5,2.69286E5,3.82539E5,1.48175E5,1.72327E5,9.6959E4,1.45328E5,2.37211E5,1.18055E5,3.012E4,6.1714E4,1.10613E5,4.3303E4,5.3656E4,7.3684E4,7.1644E4,1.77552E5,5.9659E4,9.8738E4,1.9317E4,3.0079E4,4.1E1,6.1535E4,1.79E2,3.9578E4,7.1035E4,3.9664E4,3.639E3,4.015E4,1.3506E4,8E0,7.3676E4,3.0635E4,4.1009E4,1.07391E5,7.0161E4,3.99E2,5.926E4,9.8055E4,6.83E2,1.2656E4,6.661E3,1.9056E4,1.1023E4,3.7E1,4E0,2.7641E4,3.3894E4,1.38E2,4.1E1,2.2045E4,1.7533E4,5.8779E4,1.2256E4,2.58E2,3.9406E4,7.71E2,2.868E3,2.5933E4,1.4217E4,1.2573E4,9.33E2],"tree_param":{"num_deleted":"0","num_feature":"9","num_nodes":"63","size_leaf_vector":"1"}},{"base_weights":[1.1379893E-6,-1.0087141E-1,1.9880232E-1,-1.4568356E-1,1.4818978E-2,1.7873976E-1,2.4259874E-1,-2.0276552E-1,-1.107114E-1,1.3122337E-2,2.425902E-2,1.9422291E-1,1.548393E-1,2.708348E-1,2.3342113E-1,-2.0557994E-1,-1.9859819E-1,-1.08296864E-1,-1.1789542E-1,1.5452916E-2,8.0467E-3,2.1544106E-2,3.3995774E-2,1.6387026E-1,1.9714656E-1,1.5565176E-1,-1.1693262E-1,2.9166386E-1,2.622861E-1,2.2985746E-1,2.7752453E-1,-1.0941929E-2,-2.0559644E-2,-2.0030199E-2,-1.9694997E-2,-1.0466397E-2,-1.10178515E-2,-1.7899647E-2,-1.1748101E-2,1.513129E-3,5.674002E-3,8.172137E-4,-1.4702605E-2,-1.4414279E-3,2.2329586E-3,3.2485705E-3,1.1750936E-2,1.4887248E-2,1.7055005E-2,1.948663E-2,2.3333762E-2,1.4649865E-2,1.6520627E-2,2.5911564E-2,-1.7631834E-2,9.00215E-3,2.9347146E-2,2.59316E-2,3.0192142E-2,2.3926241E-2,2.148416E-2,3.55145E-2,2.4774585E-2],"categories":[],"categories_nodes":[],"categories_segments":[],"categories_sizes":[],"default_left":[0,0,0,0,0,0,0,0,0,0,0,0,0,0,0,0,0,0,0,0,0,0,0,0,0,0,0,0,0,0,0,0,0,0,0,0,0,0,0,0,0,0,0,0,0,0,0,0,0,0,0,0,0,0,0,0,0,0,0,0,0,0,0],"id":5,"left_children":[1,3,5,7,9,11,13,15,17,19,21,23,25,27,29,31,33,35,37,39,41,43,45,47,49,51,53,55,57,59,61,-1,-1,-1,-1,-1,-1,-1,-1,-1,-1,-1,-1,-1,-1,-1,-1,-1,-1,-1,-1,-1,-1,-1,-1,-1,-1,-1,-1,-1,-1,-1,-1],"loss_changes":[1.6042904E4,2.7514058E3,2.3657031E2,7.636343E2,2.372921E0,6.831543E1,2.1859863E1,1.6640625E0,4.102051E0,1.4856682E0,5.9597206E-1,9.913086E0,1.605127E1,3.6175537E0,9.972168E0,1.14990234E-1,1.25E-1,1.2023926E0,1.489624E0,1.1421719E0,7.700782E-1,4.9895287E-1,6.166501E-1,9.6170044E-1,8.390625E0,6.307251E0,4.8917084E0,2.1707764E0,1.6543579E0,8.292725E0,1.0935242E1,0E0,0E0,0E0,0E0,0E0,0E0,0E0,0E0,0E0,0E0,0E0,0E0,0E0,0E0,0E0,0E0,0E0,0E0,0E0,0E0,0E0,0E0,0E0,0E0,0E0,0E0,0E0,0E0,0E0,0E0,0E0,0E0],"parents":[2147483647,0,0,1,1,2,2,3,3,4,4,5,5,6,6,7,7,8,8,9,9,10,10,11,11,12,12,13,13,14,14,15,15,16,16,17,17,18,18,19,19,20,20,21,21,22,22,23,23,24,24,25,25,26,26,27,27,28,28,29,29,30,30],"right_children":[2,4,6,8,10,12,14,16,18,20,22,24,26,28,30,32,34,36,38,40,42,44,46,48,50,52,54,56,58,60,62,-1,-1,-1,-1,-1,-1,-1,-1,-1,-1,-1,-1,-1,-1,-1,-1,-1,-1,-1,-1,-1,-1,-1,-1,-1,-1,-1,-1,-1,-1,-1,-1],"split_conditions":[3E1,1.5E1,1.59E2,5E0,2.6E1,1.5422696E7,3.5338288E6,3E0,1.0948232E8,4.3265464E7,5.448363E0,5.2E1,9E0,2.6190065E6,2.0169161E-2,7.7102465E6,4.2727275E0,5.8962452E7,2E0,2.0169161E-2,8E0,3.4285715E0,4.040992E7,4.88E0,2.0169161E-2,4.3E1,1.7691104E7,3.9285715E0,2.0169161E-2,5.690575E6,9.957627E-1,-1.0941929E-2,-2.0559644E-2,-2.0030199E-2,-1.9694997E-2,-1.0466397E-2,-1.10178515E-2,-1.7899647E-2,-1.1748101E-2,1.513129E-3,5.674002E-3,8.172137E-4,-1.4702605E-2,-1.4414279E-3,2.2329586E-3,3.2485705E-3,1.1750936E-2,1.4887248E-2,1.7055005E-2,1.948663E-2,2.3333762E-2,1.4649865E-2,1.6520627E-2,2.5911564E-2,-1.7631834E-2,9.00215E-3,2.9347146E-2,2.59316E-2,3.0192142E-2,2.3926241E-2,2.148416E-2,3.55145E-2,2.4774585E-2],"split_indices":[0,0,0,0,0,6,6,0,6,6,2,0,7,6,4,6,2,6,2,4,7,2,6,2,4,0,6,2,4,6,4,0,0,0,0,0,0,0,0,0,0,0,0,0,0,0,0,0,0,0,0,0,0,0,0,0,0,0,0,0,0,0,0],"split_type":[0,0,0,0,0,0,0,0,0,0,0,0,0,0,0,0,0,0,0,0,0,0,0,0,0,0,0,0,0,0,0,0,0,0,0,0,0,0,0,0,0,0,0,0,0,0,0,0,0,0,0,0,0,0,0,0,0,0,0,0,0,0,0],"sum_hessian":[8E5,5.30714E5,2.69286E5,3.82539E5,1.48175E5,1.84688E5,8.4598E4,1.45328E5,2.37211E5,1.25603E5,2.2572E4,1.12076E5,7.2612E4,2.0745E4,6.3853E4,8.6716E4,5.8612E4,1.77552E5,5.9659E4,8.6077E4,3.9526E4,1.7653E4,4.919E3,9.852E3,1.02224E5,7.2396E4,2.16E2,6.027E3,1.4718E4,5.9085E4,4.768E3,1.6E1,8.67E4,2.8761E4,2.9851E4,6.0603E4,1.16949E5,3.99E2,5.926E4,8.5413E4,6.64E2,3.9495E4,3.1E1,3.77E2,1.7276E4,4.833E3,8.6E1,3.043E3,6.809E3,9.6171E4,6.053E3,3.6983E4,3.5413E4,2.9E1,1.87E2,5.4E1,5.973E3,1.3699E4,1.019E3,3.6321E4,2.2764E4,1.319E3,3.449E3],"tree_param":{"num_deleted":"0","num_feature":"9","num_nodes":"63","size_leaf_vector":"1"}},{"base_weights":[1.2803616E-6,-9.0784475E-2,1.7892326E-1,-1.3111551E-1,1.3337145E-2,1.5782475E-1,2.1285944E-1,-1.8248947E-1,-9.964047E-2,1.6716635E-2,9.321832E-3,1.7213598E-1,1.392884E-1,1.9521303E-1,2.2916006E-1,-1.8554303E-1,-1.7934643E-1,-9.5728405E-2,-1.0337363E-1,1.6159961E-2,6.8647794E-2,9.439489E-3,-1.5675116E-1,1.7505978E-1,1.3832596E-1,1.4003153E-1,-1.10707305E-1,1.918515E-1,2.3163716E-1,2.3524925E-1,1.972744E-1,-5.132049E-3,-1.8555691E-2,-1.809842E-2,-1.7811855E-2,-9.4613675E-3,-1.0323708E-2,-1.0606248E-2,-9.822553E-3,1.4478058E-3,2.4483541E-3,2.0527741E-2,4.1532195E-3,7.45315E-4,1.6536408E-3,1.268627E-2,-1.8541748E-2,1.5921688E-2,1.8564602E-2,1.2284446E-2,1.7418591E-2,1.3184917E-2,1.4863538E-2,-1.6588204E-2,1.9861644E-2,1.9398898E-2,1.6039439E-2,3.0956296E-2,2.1078844E-2,2.3172637E-2,2.8048558E-2,1.9883135E-2,6.0013765E-3],"categories":[],"categories_nodes":[],"categories_segments":[],"categories_sizes":[],"default_left":[0,0,0,0,0,0,0,0,0,0,0,0,0,0,0,0,0,0,0,0,0,0,0,0,0,0,0,0,0,0,0,0,0,0,0,0,0,0,0,0,0,0,0,0,0,0,0,0,0,0,0,0,0,0,0,0,0,0,0,0,0,0,0],"id":6,"left_children":[1,3,5,7,9,11,13,15,17,19,21,23,25,27,29,31,33,35,37,39,41,43,45,47,49,51,53,55,57,59,61,-1,-1,-1,-1,-1,-1,-1,-1,-1,-1,-1,-1,-1,-1,-1,-1,-1,-1,-1,-1,-1,-1,-1,-1,-1,-1,-1,-1,-1,-1,-1,-1],"loss_changes":[1.2994887E4,2.2286504E3,1.9277734E2,6.1854834E2,2.0105495E0,4.4026855E1,2.9649902E1,1.3613281E0,3.4545898E0,2.3247986E0,1.3247008E0,9.238525E0,1.3457397E1,6.025757E0,1.0371338E1,1.2768555E-1,1.11816406E-1,9.5983887E-1,1.6695557E0,1.1140709E0,3.1516638E0,9.538555E-1,4.1377044E-1,1.4434814E1,4.121811E0,5.05896E0,3.702321E0,3.020996E0,6.732315E0,7.1140137E0,1.8280945E0,0E0,0E0,0E0,0E0,0E0,0E0,0E0,0E0,0E0,0E0,0E0,0E0,0E0,0E0,0E0,0E0,0E0,0E0,0E0,0E0,0E0,0E0,0E0,0E0,0E0,0E0,0E0,0E0,0E0,0E0,0E0,0E0],"parents":[2147483647,0,0,1,1,2,2,3,3,4,4,5,5,6,6,7,7,8,8,9,9,10,10,11,11,12,12,13,13,14,14,15,15,16,16,17,17,18,18,19,19,20,20,21,21,22,22,23,23,24,24,25,25,26,26,27,27,28,28,29,29,30,30],"right_children":[2,4,6,8,10,12,14,16,18,20,22,24,26,28,30,32,34,36,38,40,42,44,46,48,50,52,54,56,58,60,62,-1,-1,-1,-1,-1,-1,-1,-1,-1,-1,-1,-1,-1,-1,-1,-1,-1,-1,-1,-1,-1,-1,-1,-1,-1,-1,-1,-1,-1,-1,-1,-1],"split_conditions":[3E1,1.5E1,1.25E2,5E0,3.722682E7,1.5422696E7,2.22E2,2E0,7.885778E7,2.0169161E-2,7E0,6.5E0,9E0,2.0169161E-2,5.8568835E6,4.241774E6,4.0333333E0,6.769231E0,4.775E0,2.7E1,9.878049E-1,5.2352943E0,1.8E1,5.095238E0,2.0169161E-2,4.3E1,5.85E0,1.0719128E7,9.705635E-1,3.5812672E-2,1.7691104E7,-5.132049E-3,-1.8555691E-2,-1.809842E-2,-1.7811855E-2,-9.4613675E-3,-1.0323708E-2,-1.0606248E-2,-9.822553E-3,1.4478058E-3,2.4483541E-3,2.0527741E-2,4.1532195E-3,7.45315E-4,1.6536408E-3,1.268627E-2,-1.8541748E-2,1.5921688E-2,1.8564602E-2,1.2284446E-2,1.7418591E-2,1.3184917E-2,1.4863538E-2,-1.6588204E-2,1.9861644E-2,1.9398898E-2,1.6039439E-2,3.0956296E-2,2.1078844E-2,2.3172637E-2,2.8048558E-2,1.9883135E-2,6.0013765E-3],"split_indices":[0,0,0,0,6,6,0,0,6,4,7,2,7,4,6,6,2,2,2,0,4,2,0,2,4,0,2,6,4,4,6,0,0,0,0,0,0,0,0,0,0,0,0,0,0,0,0,0,0,0,0,0,0,0,0,0,0,0,0,0,0,0,0],"split_type":[0,0,0,0,0,0,0,0,0,0,0,0,0,0,0,0,0,0,0,0,0,0,0,0,0,0,0,0,0,0,0,0,0,0,0,0,0,0,0,0,0,0,0,0,0,0,0,0,0,0,0,0,0,0,0,0,0,0,0,0,0,0,0],"sum_hessian":[8E5,5.30714E5,2.69286E5,3.82539E5,1.48175E5,1.66054E5,1.03232E5,1.45328E5,2.37211E5,8.0456E4,6.7719E4,9.3702E4,7.2352E4,4.9576E4,5.3656E4,7.3684E4,7.1644E4,1.15843E5,1.21368E5,7.9604E4,8.52E2,6.7672E4,4.7E1,8.624E4,7.462E3,7.2138E4,2.14E2,4.5393E4,4.183E3,4.5047E4,8.609E3,8E0,7.3676E4,3.0635E4,4.1009E4,1.0088E5,1.4963E4,7.9714E4,4.1654E4,6.6225E4,1.3379E4,1.4E2,7.12E2,5.2875E4,1.4797E4,4E0,4.3E1,3.455E4,5.169E4,5.215E3,2.247E3,3.6983E4,3.5155E4,1.82E2,3.2E1,4.25E4,2.893E3,8.8E2,3.303E3,4.1798E4,3.249E3,8.512E3,9.7E1],"tree_param":{"num_deleted":"0","num_feature":"9","num_nodes":"63","size_leaf_vector":"1"}},{"base_weights":[1.3850798E-6,-8.1706166E-2,1.610319E-1,-1.18004225E-1,1.20036E-2,1.941465E-1,1.4322326E-1,-1.6424094E-1,-8.967659E-2,1.0297265E-2,1.8690994E-2,1.7904972E-1,2.1061899E-1,1.560624E-1,1.2521952E-1,-1.6656567E-1,-1.6079873E-1,-9.41429E-2,-8.6846285E-2,1.1560999E-2,3.837481E-3,1.889123E-2,-1.251609E-1,1.7603174E-1,2.1081436E-1,8.5699365E-2,2.1182716E-1,1.5847467E-1,1.18595615E-1,1.2587376E-1,-9.450273E-2,-8.801759E-3,-1.6657917E-2,-1.6080478E-2,9.702571E-3,-9.069799E-3,-9.923228E-3,-8.696531E-3,-3.8308378E-3,1.1366418E-3,3.9438573E-3,3.9709863E-4,-1.2518043E-2,1.6411142E-3,2.7985414E-3,-1.4749701E-2,6.962569E-3,1.7988276E-2,1.4021377E-2,2.855033E-2,1.9099878E-2,6.2203477E-3,1.1201389E-2,2.0337177E-2,2.2841316E-2,1.4857197E-2,1.6764803E-2,1.0756137E-2,1.4370206E-2,1.3114524E-2,1.135444E-2,2.2020355E-2,-1.4421915E-2],"categories":[],"categories_nodes":[],"categories_segments":[],"categories_sizes":[],"default_left":[0,0,0,0,0,0,0,0,0,0,0,0,0,0,0,0,0,0,0,0,0,0,0,0,0,0,0,0,0,0,0,0,0,0,0,0,0,0,0,0,0,0,0,0,0,0,0,0,0,0,0,0,0,0,0,0,0,0,0,0,0,0,0],"id":7,"left_children":[1,3,5,7,9,11,13,15,17,19,21,23,25,27,29,31,33,35,37,39,41,43,45,47,49,51,53,55,57,59,61,-1,-1,-1,-1,-1,-1,-1,-1,-1,-1,-1,-1,-1,-1,-1,-1,-1,-1,-1,-1,-1,-1,-1,-1,-1,-1,-1,-1,-1,-1,-1,-1],"loss_changes":[1.0525954E4,1.805219E3,1.5877783E2,5.0102734E2,1.6906338E0,2.3381104E1,4.0458984E1,1.1359863E0,2.9904785E0,9.6369934E-1,8.699789E-1,4.6740723E0,6.77771E0,9.219727E0,1.0491821E1,7.714844E-2,1.07055664E-1,1.6039429E0,8.3569336E-1,5.351553E-1,3.3324158E-1,6.779766E-1,1.930021E-1,6.1660156E0,6.24881E0,2.6074886E-1,6.2077637E0,8.698242E0,1.6985245E0,4.7092285E0,3.4269543E0,0E0,0E0,0E0,0E0,0E0,0E0,0E0,0E0,0E0,0E0,0E0,0E0,0E0,0E0,0E0,0E0,0E0,0E0,0E0,0E0,0E0,0E0,0E0,0E0,0E0,0E0,0E0,0E0,0E0,0E0,0E0,0E0],"parents":[2147483647,0,0,1,1,2,2,3,3,4,4,5,5,6,6,7,7,8,8,9,9,10,10,11,11,12,12,13,13,14,14,15,15,16,16,17,17,18,18,19,19,20,20,21,21,22,22,23,23,24,24,25,25,26,26,27,27,28,28,29,29,30,30],"right_children":[2,4,6,8,10,12,14,16,18,20,22,24,26,28,30,32,34,36,38,40,42,44,46,48,50,52,54,56,58,60,62,-1,-1,-1,-1,-1,-1,-1,-1,-1,-1,-1,-1,-1,-1,-1,-1,-1,-1,-1,-1,-1,-1,-1,-1,-1,-1,-1,-1,-1,-1,-1,-1],"split_conditions":[3E1,1.5E1,7.4830055E6,5E0,2.5E1,2.32E2,1.5422696E7,3E0,4.4117646E0,5.076965E7,7E0,2.0169161E-2,3.8076923E0,6.5E0,9E0,7.7102465E6,9.966216E-1,1.0948232E8,2.0169161E-2,2.0169161E-2,9.9122804E-1,5.448363E0,3.6E0,6.3809524E0,9.622642E-1,3.65E0,3.42E2,5.178571E0,2.0169161E-2,2.4882846E7,1.7691104E7,-8.801759E-3,-1.6657917E-2,-1.6080478E-2,9.702571E-3,-9.069799E-3,-9.923228E-3,-8.696531E-3,-3.8308378E-3,1.1366418E-3,3.9438573E-3,3.9709863E-4,-1.2518043E-2,1.6411142E-3,2.7985414E-3,-1.4749701E-2,6.962569E-3,1.7988276E-2,1.4021377E-2,2.855033E-2,1.9099878E-2,6.2203477E-3,1.1201389E-2,2.0337177E-2,2.2841316E-2,1.4857197E-2,1.6764803E-2,1.0756137E-2,1.4370206E-2,1.3114524E-2,1.135444E-2,2.2020355E-2,-1.4421915E-2],"split_indices":[0,0,6,0,0,0,6,0,2,6,7,4,2,2,7,6,4,6,4,4,4,2,2,2,4,2,0,2,4,6,6,0,0,0,0,0,0,0,0,0,0,0,0,0,0,0,0,0,0,0,0,0,0,0,0,0,0,0,0,0,0,0,0],"split_type":[0,0,0,0,0,0,0,0,0,0,0,0,0,0,0,0,0,0,0,0,0,0,0,0,0,0,0,0,0,0,0,0,0,0,0,0,0,0,0,0,0,0,0,0,0,0,0,0,0,0,0,0,0,0,0,0,0,0,0,0,0,0,0],"sum_hessian":[8E5,5.30714E5,2.69286E5,3.82539E5,1.48175E5,9.417E4,1.75116E5,1.45328E5,2.37211E5,1.18055E5,3.012E4,4.9143E4,4.5027E4,1.02215E5,7.2901E4,8.6716E4,5.8612E4,9.2E4,1.45211E5,9.8738E4,1.9317E4,3.0079E4,4.1E1,4.4885E4,4.258E3,4.32E2,4.4595E4,9.6029E4,6.186E3,7.2685E4,2.16E2,1.6E1,8.67E4,5.8611E4,1E0,5.4875E4,3.7125E4,1.44855E5,3.56E2,9.8055E4,6.83E2,1.9298E4,1.9E1,2.3636E4,6.443E3,3.7E1,4E0,4.0524E4,4.361E3,8.9E2,3.368E3,2.3E2,2.02E2,2.9546E4,1.5049E4,4.6187E4,4.9842E4,4.301E3,1.885E3,5.0909E4,2.1776E4,2.9E1,1.87E2],"tree_param":{"num_deleted":"0","num_feature":"9","num_nodes":"63","size_leaf_vector":"1"}},{"base_weights":[1.4431998E-6,-7.353569E-2,1.4492957E-1,-1.06203966E-1,1.0803177E-2,1.3126642E-1,1.8017733E-1,-1.4781706E-1,-8.070907E-2,1.3646672E-2,7.4247103E-3,1.144937E-1,1.4423212E-1,2.0031169E-1,1.7274527E-1,-1.5033296E-1,-1.4522746E-1,-7.910884E-2,-8.733305E-2,1.3165524E-2,5.853303E-2,7.522431E-3,-1.3050231E-1,1.14982955E-1,-8.364788E-2,1.4901091E-1,1.24445595E-1,2.1283841E-1,1.9044374E-1,1.697607E-1,2.1029234E-1,-1.503428E-2,-4.3804126E-4,-1.4672549E-2,-1.4410484E-2,-7.5820233E-3,-8.063588E-3,-1.2049336E-2,-8.656581E-3,1.20488E-3,2.2559005E-3,1.81901E-2,3.4054187E-3,5.7607004E-4,1.3816914E-3,1.5229361E-2,-1.5273968E-2,1.0585042E-2,1.2350154E-2,1.9103555E-2,-1.3075145E-2,1.47018405E-2,1.7704925E-2,1.2632683E-2,2.9242856E-3,3.6092394E-3,2.1425165E-2,1.9647082E-2,1.6267579E-2,9.480531E-3,1.7105749E-2,2.7327737E-2,1.8472325E-2],"categories":[],"categories_nodes":[],"categories_segments":[],"categories_sizes":[],"default_left":[0,0,0,0,0,0,0,0,0,0,0,0,0,0,0,0,0,0,0,0,0,0,0,0,0,0,0,0,0,0,0,0,0,0,0,0,0,0,0,0,0,0,0,0,0,0,0,0,0,0,0,0,0,0,0,0,0,0,0,0,0,0,0],"id":8,"left_children":[1,3,5,7,9,11,13,15,17,19,21,23,25,27,29,31,33,35,37,39,41,43,45,47,49,51,53,55,57,59,61,-1,-1,-1,-1,-1,-1,-1,-1,-1,-1,-1,-1,-1,-1,-1,-1,-1,-1,-1,-1,-1,-1,-1,-1,-1,-1,-1,-1,-1,-1,-1,-1],"loss_changes":[8.5261E3,1.4622302E3,1.2966406E2,4.05833E2,1.4233742E0,4.218701E1,1.1221436E1,9.250488E-1,2.5073242E0,1.7368546E0,9.1373634E-1,8.212524E0,1.0330566E1,2.4655762E0,6.121826E0,1.0522461E-1,9.9487305E-2,9.5336914E-1,1.1636047E0,8.347788E-1,2.5697849E0,7.5035906E-1,3.2511574E-1,6.553589E0,2.7291393E0,4.898926E0,3.81073E0,2.2215881E0,1.8676147E0,4.932251E0,6.45903E0,0E0,0E0,0E0,0E0,0E0,0E0,0E0,0E0,0E0,0E0,0E0,0E0,0E0,0E0,0E0,0E0,0E0,0E0,0E0,0E0,0E0,0E0,0E0,0E0,0E0,0E0,0E0,0E0,0E0,0E0,0E0,0E0],"parents":[2147483647,0,0,1,1,2,2,3,3,4,4,5,5,6,6,7,7,8,8,9,9,10,10,11,11,12,12,13,13,14,14,15,15,16,16,17,17,18,18,19,19,20,20,21,21,22,22,23,23,24,24,25,25,26,26,27,27,28,28,29,29,30,30],"right_children":[2,4,6,8,10,12,14,16,18,20,22,24,26,28,30,32,34,36,38,40,42,44,46,48,50,52,54,56,58,60,62,-1,-1,-1,-1,-1,-1,-1,-1,-1,-1,-1,-1,-1,-1,-1,-1,-1,-1,-1,-1,-1,-1,-1,-1,-1,-1,-1,-1,-1,-1,-1,-1],"split_conditions":[3E1,1.5E1,1.78E2,5E0,3.722682E7,6.1E1,3.5338288E6,2E0,1.1842048E8,2.0169161E-2,7E0,9E0,1.3472905E7,2.826694E6,2.0169161E-2,2.0169161E-2,4.0333333E0,5.8962452E7,2.5E0,2.8E1,9.878049E-1,5.2352943E0,6.25E-1,4.9E0,1.7691104E7,2.0169161E-2,6.9574466E0,3.9285715E0,5.7777777E0,3.9E0,9.957627E-1,-1.503428E-2,-4.3804126E-4,-1.4672549E-2,-1.4410484E-2,-7.5820233E-3,-8.063588E-3,-1.2049336E-2,-8.656581E-3,1.20488E-3,2.2559005E-3,1.81901E-2,3.4054187E-3,5.7607004E-4,1.3816914E-3,1.5229361E-2,-1.5273968E-2,1.0585042E-2,1.2350154E-2,1.9103555E-2,-1.3075145E-2,1.47018405E-2,1.7704925E-2,1.2632683E-2,2.9242856E-3,3.6092394E-3,2.1425165E-2,1.9647082E-2,1.6267579E-2,9.480531E-3,1.7105749E-2,2.7327737E-2,1.8472325E-2],"split_indices":[0,0,0,0,6,0,6,0,6,4,7,7,6,6,4,4,2,6,2,0,4,2,4,2,6,4,2,2,2,2,4,0,0,0,0,0,0,0,0,0,0,0,0,0,0,0,0,0,0,0,0,0,0,0,0,0,0,0,0,0,0,0,0],"split_type":[0,0,0,0,0,0,0,0,0,0,0,0,0,0,0,0,0,0,0,0,0,0,0,0,0,0,0,0,0,0,0,0,0,0,0,0,0,0,0,0,0,0,0,0,0,0,0,0,0,0,0,0,0,0,0,0,0,0,0,0,0,0,0],"sum_hessian":[8E5,5.30714E5,2.69286E5,3.82539E5,1.48175E5,1.94065E5,7.5221E4,1.45328E5,2.37211E5,8.0456E4,6.7719E4,8.4615E4,1.0945E5,2.0273E4,5.4948E4,7.3684E4,7.1644E4,1.91066E5,4.6145E4,7.9604E4,8.52E2,6.7672E4,4.7E1,8.4407E4,2.08E2,8.8153E4,2.1297E4,8.924E3,1.1349E4,5.0907E4,4.041E3,7.3679E4,5E0,3.0635E4,4.1009E4,6.0603E4,1.30463E5,1.04E3,4.5105E4,7.1148E4,8.456E3,1.4E2,7.12E2,5.2875E4,1.4797E4,3E0,4.4E1,4.0742E4,4.3665E4,3E1,1.78E2,8.231E4,5.843E3,2.0884E4,4.13E2,7.1E1,8.853E3,9.32E3,2.029E3,8.67E2,5.004E4,1.164E3,2.877E3],"tree_param":{"num_deleted":"0","num_feature":"9","num_nodes":"63","size_leaf_vector":"1"}},{"base_weights":[1.4908454E-6,-6.6182226E-2,1.3043739E-1,-9.558378E-2,9.723039E-3,1.5746887E-1,1.15900174E-1,-1.3303566E-1,-7.263832E-2,7.696524E-3,1.3840224E-2,1.4233401E-1,1.6894E-1,9.857712E-2,1.2527966E-1,-1.3495691E-1,-1.3019094E-1,-7.648829E-2,-7.019862E-2,8.234994E-3,-3.8753664E-3,1.1706451E-2,2.172436E-2,1.3950363E-1,1.7025544E-1,1.8255664E-1,1.6167672E-1,9.90527E-2,-6.402896E-2,1.02895685E-1,1.282099E-1,-4.415496E-3,-1.3496582E-2,-1.3019656E-2,9.937967E-3,-7.985556E-3,-7.262975E-3,-7.030518E-3,-2.676509E-3,9.1200304E-4,6.8669025E-5,-3.362611E-4,-1.6486026E-2,1.1835805E-3,-1.1605381E-2,2.0763443E-3,4.903939E-3,1.4311141E-2,1.1113455E-2,2.3266023E-2,1.5482654E-2,6.2734457E-3,1.8349996E-2,1.5890364E-2,1.995819E-2,9.791036E-3,1.3373705E-2,1.918321E-2,-1.0086931E-2,1.037201E-2,-1.844071E-2,1.3030903E-2,8.859619E-3],"categories":[],"categories_nodes":[],"categories_segments":[],"categories_sizes":[],"default_left":[0,0,0,0,0,0,0,0,0,0,0,0,0,0,0,0,0,0,0,0,0,0,0,0,0,0,0,0,0,0,0,0,0,0,0,0,0,0,0,0,0,0,0,0,0,0,0,0,0,0,0,0,0,0,0,0,0,0,0,0,0,0,0],"id":9,"left_children":[1,3,5,7,9,11,13,15,17,19,21,23,25,27,29,31,33,35,37,39,41,43,45,47,49,51,53,55,57,59,61,-1,-1,-1,-1,-1,-1,-1,-1,-1,-1,-1,-1,-1,-1,-1,-1,-1,-1,-1,-1,-1,-1,-1,-1,-1,-1,-1,-1,-1,-1,-1,-1],"loss_changes":[6.906203E3,1.1844153E3,1.0580127E2,3.2872632E2,1.2362051E0,1.632544E1,2.8440918E1,7.7685547E-1,2.2226562E0,6.187935E-1,8.219681E-1,3.1854248E0,5.2679443E0,4.76355E0,7.437866E0,6.4208984E-2,8.843994E-2,1.1895752E0,6.7022705E-1,6.338887E-1,3.639685E-1,6.370907E-1,2.7219105E-1,3.7583008E0,3.5582428E0,2.093689E0,3.6409912E0,2.4171143E0,1.7160318E0,3.1349487E0,8.341064E0,0E0,0E0,0E0,0E0,0E0,0E0,0E0,0E0,0E0,0E0,0E0,0E0,0E0,0E0,0E0,0E0,0E0,0E0,0E0,0E0,0E0,0E0,0E0,0E0,0E0,0E0,0E0,0E0,0E0,0E0,0E0,0E0],"parents":[2147483647,0,0,1,1,2,2,3,3,4,4,5,5,6,6,7,7,8,8,9,9,10,10,11,11,12,12,13,13,14,14,15,15,16,16,17,17,18,18,19,19,20,20,21,21,22,22,23,23,24,24,25,25,26,26,27,27,28,28,29,29,30,30],"right_children":[2,4,6,8,10,12,14,16,18,20,22,24,26,28,30,32,34,36,38,40,42,44,46,48,50,52,54,56,58,60,62,-1,-1,-1,-1,-1,-1,-1,-1,-1,-1,-1,-1,-1,-1,-1,-1,-1,-1,-1,-1,-1,-1,-1,-1,-1,-1,-1,-1,-1,-1,-1,-1],"split_conditions":[3E1,1.5E1,7.4830055E6,5E0,2.3E1,2.17E2,5.2E1,3E0,4.4117646E0,6.490522E7,5.448363E0,2.0169161E-2,3.5338288E6,8E0,4.3333335E0,4.241774E6,9.966216E-1,9E0,2.0169161E-2,6.25E0,9.9122804E-1,7E0,2.0169161E-2,6.3809524E0,9.622642E-1,3.9E0,3.5812672E-2,2.0169161E-2,1.7691104E7,1E1,6.5E0,-4.415496E-3,-1.3496582E-2,-1.3019656E-2,9.937967E-3,-7.985556E-3,-7.262975E-3,-7.030518E-3,-2.676509E-3,9.1200304E-4,6.8669025E-5,-3.362611E-4,-1.6486026E-2,1.1835805E-3,-1.1605381E-2,2.0763443E-3,4.903939E-3,1.4311141E-2,1.1113455E-2,2.3266023E-2,1.5482654E-2,6.2734457E-3,1.8349996E-2,1.5890364E-2,1.995819E-2,9.791036E-3,1.3373705E-2,1.918321E-2,-1.0086931E-2,1.037201E-2,-1.844071E-2,1.3030903E-2,8.859619E-3],"split_indices":[0,0,6,0,0,0,0,0,2,6,2,4,6,7,2,6,4,0,4,2,4,7,4,2,4,2,4,4,6,7,2,0,0,0,0,0,0,0,0,0,0,0,0,0,0,0,0,0,0,0,0,0,0,0,0,0,0,0,0,0,0,0,0],"split_type":[0,0,0,0,0,0,0,0,0,0,0,0,0,0,0,0,0,0,0,0,0,0,0,0,0,0,0,0,0,0,0,0,0,0,0,0,0,0,0,0,0,0,0,0,0,0,0,0,0,0,0,0,0,0,0,0,0,0,0,0,0,0,0],"sum_hessian":[8E5,5.30714E5,2.69286E5,3.82539E5,1.48175E5,9.417E4,1.75116E5,1.45328E5,2.37211E5,9.9301E4,4.8874E4,4.0607E4,5.3563E4,6.1515E4,1.13601E5,8.6716E4,5.8612E4,9.2E4,1.45211E5,9.4886E4,4.415E3,3.8466E4,1.0408E4,3.6875E4,3.732E3,1.8624E4,3.4939E4,6.1336E4,1.79E2,1.3154E4,1.00447E5,9E0,8.6707E4,5.8611E4,1E0,4.9117E4,4.2883E4,1.44855E5,3.56E2,8.4928E4,9.958E3,4.402E3,1.3E1,3.8428E4,3.8E1,1.0056E4,3.52E2,3.2711E4,4.164E3,7.37E2,2.995E3,1.46E2,1.8478E4,3.2562E4,2.377E3,5.9384E4,1.952E3,2.2E1,1.57E2,1.3117E4,3.7E1,9.539E4,5.057E3],"tree_param":{"num_deleted":"0","num_feature":"9","num_nodes":"63","size_leaf_vector":"1"}},{"base_weights":[1.476388E-6,-5.956413E-2,1.1739429E-1,-8.602553E-2,8.7506035E-3,1.0317836E-1,1.4026015E-1,-1.19732246E-1,-6.537459E-2,1.0431521E-2,4.32956E-3,8.876548E-2,1.1170221E-1,1.5131302E-1,1.2841536E-1,-1.1759138E-1,-1.2180456E-2,-6.2471088E-2,-6.814538E-2,1.0183494E-2,3.6126222E-2,-3.8707783E-3,5.617365E-3,8.91921E-2,-5.757553E-2,1.0025672E-1,1.1798278E-1,1.4470772E-1,1.6978964E-1,1.2603171E-1,1.5622774E-1,-1.2008187E-2,-1.1692171E-2,-6.1406423E-3,-6.9644465E-3,-1.0018597E-2,-6.784316E-3,9.451302E-4,1.7904558E-3,-2.312643E-2,4.413584E-3,-2.5570983E-4,-1.0088879E-2,5.362265E-4,5.675976E-3,8.815058E-3,1.1997715E-2,-9.37017E-3,1.8114878E-2,9.822979E-3,1.5978355E-2,1.2338406E-2,9.208956E-3,1.4231319E-2,1.7335666E-2,5.2970042E-3,1.721083E-2,6.397161E-3,1.2702468E-2,2.2720318E-2,1.3186142E-2],"categories":[],"categories_nodes":[],"categories_segments":[],"categories_sizes":[],"default_left":[0,0,0,0,0,0,0,0,0,0,0,0,0,0,0,0,0,0,0,0,0,0,0,0,0,0,0,0,0,0,0,0,0,0,0,0,0,0,0,0,0,0,0,0,0,0,0,0,0,0,0,0,0,0,0,0,0,0,0,0,0],"id":10,"left_children":[1,3,5,7,9,11,13,15,17,19,21,23,25,27,29,31,-1,33,35,37,39,41,43,45,47,49,51,53,55,57,59,-1,-1,-1,-1,-1,-1,-1,-1,-1,-1,-1,-1,-1,-1,-1,-1,-1,-1,-1,-1,-1,-1,-1,-1,-1,-1,-1,-1,-1,-1],"loss_changes":[5.594073E3,9.593761E2,8.7519775E1,2.6626855E2,1.1011124E0,2.039038E1,1.3495728E1,6.3061523E-1,1.9042358E0,6.8381596E-1,4.3109852E-1,3.8581238E0,7.4887695E0,6.4919434E0,3.2843628E0,1.0510254E-1,0E0,8.804016E-1,1.168335E0,6.009579E-1,2.2075872E0,7.059459E-1,4.5997345E-1,1.9624634E0,1.5693287E0,4.445709E0,9.410217E0,2.6741943E0,3.7981567E0,2.8209229E0,6.7666245E0,0E0,0E0,0E0,0E0,0E0,0E0,0E0,0E0,0E0,0E0,0E0,0E0,0E0,0E0,0E0,0E0,0E0,0E0,0E0,0E0,0E0,0E0,0E0,0E0,0E0,0E0,0E0,0E0,0E0,0E0],"parents":[2147483647,0,0,1,1,2,2,3,3,4,4,5,5,6,6,7,7,8,8,9,9,10,10,11,11,12,12,13,13,14,14,15,15,17,17,18,18,19,19,20,20,21,21,22,22,23,23,24,24,25,25,26,26,27,27,28,28,29,29,30,30],"right_children":[2,4,6,8,10,12,14,16,18,20,22,24,26,28,30,32,-1,34,36,38,40,42,44,46,48,50,52,54,56,58,60,-1,-1,-1,-1,-1,-1,-1,-1,-1,-1,-1,-1,-1,-1,-1,-1,-1,-1,-1,-1,-1,-1,-1,-1,-1,-1,-1,-1,-1,-1],"split_conditions":[3E1,1.5E1,1.25E2,5E0,4.3265464E7,5.2E1,5.058848E6,3.595167E8,7.885778E7,2.0169161E-2,3.75E0,8E0,4.888889E0,3.42E2,2.0169161E-2,3E0,-1.2180456E-2,6.769231E0,2.5E0,2.8E1,3.4285715E0,6.25E-1,2.0169161E-2,2.0169161E-2,9.250105E-1,2.0169161E-2,5.875E0,2.0169161E-2,3.9E0,3.75E0,9.705635E-1,-1.2008187E-2,-1.1692171E-2,-6.1406423E-3,-6.9644465E-3,-1.0018597E-2,-6.784316E-3,9.451302E-4,1.7904558E-3,-2.312643E-2,4.413584E-3,-2.5570983E-4,-1.0088879E-2,5.362265E-4,5.675976E-3,8.815058E-3,1.1997715E-2,-9.37017E-3,1.8114878E-2,9.822979E-3,1.5978355E-2,1.2338406E-2,9.208956E-3,1.4231319E-2,1.7335666E-2,5.2970042E-3,1.721083E-2,6.397161E-3,1.2702468E-2,2.2720318E-2,1.3186142E-2],"split_indices":[0,0,0,0,6,0,6,6,6,4,2,7,2,0,4,0,0,2,2,0,2,4,4,4,4,4,2,4,2,2,4,0,0,0,0,0,0,0,0,0,0,0,0,0,0,0,0,0,0,0,0,0,0,0,0,0,0,0,0,0,0],"split_type":[0,0,0,0,0,0,0,0,0,0,0,0,0,0,0,0,0,0,0,0,0,0,0,0,0,0,0,0,0,0,0,0,0,0,0,0,0,0,0,0,0,0,0,0,0,0,0,0,0,0,0,0,0,0,0,0,0,0,0,0,0],"sum_hessian":[8E5,5.30714E5,2.69286E5,3.82539E5,1.48175E5,1.66054E5,1.03232E5,1.45328E5,2.37211E5,1.07356E5,4.0819E4,6.1714E4,1.0434E5,5.3395E4,4.9837E4,7.151E4,7.3818E4,1.15843E5,1.21368E5,1.06331E5,1.025E3,5.54E3,3.5279E4,6.1535E4,1.79E2,3.6975E4,6.7365E4,3.934E4,1.4055E4,4.5908E4,3.929E3,1.5116E4,5.6394E4,1.0088E5,1.4963E4,1.131E3,1.20237E5,9.7123E4,9.208E3,2.9E1,9.96E2,5.467E3,7.3E1,3.5105E4,1.74E2,5.9525E4,2.01E3,1.56E2,2.3E1,3.576E4,1.215E3,5.5735E4,1.163E4,3.6311E4,3.029E3,2.74E2,1.3781E4,7.24E2,4.5184E4,1.002E3,2.927E3],"tree_param":{"num_deleted":"0","num_feature":"9","num_nodes":"61","size_leaf_vector":"1"}},{"base_weights":[1.4574593E-6,-5.3607874E-2,1.0565556E-1,-7.742314E-2,7.875411E-3,9.55084E-2,1.3183293E-1,-1.0775927E-1,-5.8837254E-2,6.6157887E-3,1.2812104E-2,1.0658816E-1,8.424377E-2,1.5747426E-1,1.283791E-1,-1.0964305E-1,-1.0582034E-1,-6.4793E-2,-5.758629E-2,-2.2592603E-3,7.1426206E-3,9.283989E-3,1.7427223E-2,8.3112076E-2,1.0916454E-1,8.461321E-2,-6.639342E-2,1.03723116E-1,1.6108085E-1,1.2608E-1,1.5748857E-1,-1.096519E-2,1.7238589E-3,-1.0709448E-2,-1.0472619E-2,-1.1059149E-2,-6.4335256E-3,-5.7613165E-3,8.255611E-3,-1.6261962E-4,-2.1096244E-2,6.977387E-4,3.2226802E-3,9.52243E-4,-9.5103625E-3,1.6383056E-3,5.838604E-3,7.986471E-3,1.243348E-2,1.114319E-2,9.154449E-3,8.945724E-3,7.4587315E-3,-1.0971117E-2,1.6220197E-2,1.9921716E-3,1.1575147E-2,1.4940861E-2,1.7321268E-2,1.28144575E-2,9.269046E-3,2.1212926E-2,1.354477E-2],"categories":[],"categories_nodes":[],"categories_segments":[],"categories_sizes":[],"default_left":[0,0,0,0,0,0,0,0,0,0,0,0,0,0,0,0,0,0,0,0,0,0,0,0,0,0,0,0,0,0,0,0,0,0,0,0,0,0,0,0,0,0,0,0,0,0,0,0,0,0,0,0,0,0,0,0,0,0,0,0,0,0,0],"id":11,"left_children":[1,3,5,7,9,11,13,15,17,19,21,23,25,27,29,31,33,35,37,39,41,43,45,47,49,51,53,55,57,59,61,-1,-1,-1,-1,-1,-1,-1,-1,-1,-1,-1,-1,-1,-1,-1,-1,-1,-1,-1,-1,-1,-1,-1,-1,-1,-1,-1,-1,-1,-1,-1,-1],"loss_changes":[4.5312476E3,7.7709534E2,7.1516846E1,2.1567896E2,9.2132854E-1,2.421228E1,6.6414795E0,5.1916504E-1,1.7635498E0,5.5200577E-1,4.9028826E-1,5.908081E0,5.361206E0,1.7134705E0,4.4172363E0,8.453369E-2,8.862305E-2,8.559418E-1,7.4316406E-1,8.737791E-1,4.616704E-1,4.2585647E-1,5.5712175E-1,1.2857513E0,3.5117188E0,4.6555786E0,2.3547232E0,5.6620216E-1,1.1582184E0,4.224243E0,5.811058E0,0E0,0E0,0E0,0E0,0E0,0E0,0E0,0E0,0E0,0E0,0E0,0E0,0E0,0E0,0E0,0E0,0E0,0E0,0E0,0E0,0E0,0E0,0E0,0E0,0E0,0E0,0E0,0E0,0E0,0E0,0E0,0E0],"parents":[2147483647,0,0,1,1,2,2,3,3,4,4,5,5,6,6,7,7,8,8,9,9,10,10,11,11,12,12,13,13,14,14,15,15,16,16,17,17,18,18,19,19,20,20,21,21,22,22,23,23,24,24,25,25,26,26,27,27,28,28,29,29,30,30],"right_children":[2,4,6,8,10,12,14,16,18,20,22,24,26,28,30,32,34,36,38,40,42,44,46,48,50,52,54,56,58,60,62,-1,-1,-1,-1,-1,-1,-1,-1,-1,-1,-1,-1,-1,-1,-1,-1,-1,-1,-1,-1,-1,-1,-1,-1,-1,-1,-1,-1,-1,-1,-1,-1],"split_conditions":[3E1,1.5E1,1.78E2,5E0,2.5E1,1.3472905E7,2.826694E6,2E0,3.857143E0,3.75E0,4.962185E0,6.1E1,9E0,4.487805E0,2.0169161E-2,2.0169161E-2,4.2727275E0,2E0,3E0,9.897959E-1,2.0169161E-2,7E0,2.0169161E-2,2.0169161E-2,6.1666665E0,2.2278744E7,9.250105E-1,3.9285715E0,3.66E2,6.125E0,9.9678457E-1,-1.096519E-2,1.7238589E-3,-1.0709448E-2,-1.0472619E-2,-1.1059149E-2,-6.4335256E-3,-5.7613165E-3,8.255611E-3,-1.6261962E-4,-2.1096244E-2,6.977387E-4,3.2226802E-3,9.52243E-4,-9.5103625E-3,1.6383056E-3,5.838604E-3,7.986471E-3,1.243348E-2,1.114319E-2,9.154449E-3,8.945724E-3,7.4587315E-3,-1.0971117E-2,1.6220197E-2,1.9921716E-3,1.1575147E-2,1.4940861E-2,1.7321268E-2,1.28144575E-2,9.269046E-3,2.1212926E-2,1.354477E-2],"split_indices":[0,0,0,0,0,6,6,0,2,2,2,0,7,2,4,4,2,2,7,4,4,7,4,4,2,6,4,2,0,2,4,0,0,0,0,0,0,0,0,0,0,0,0,0,0,0,0,0,0,0,0,0,0,0,0,0,0,0,0,0,0,0,0],"split_type":[0,0,0,0,0,0,0,0,0,0,0,0,0,0,0,0,0,0,0,0,0,0,0,0,0,0,0,0,0,0,0,0,0,0,0,0,0,0,0,0,0,0,0,0,0,0,0,0,0,0,0,0,0,0,0,0,0,0,0,0,0,0,0],"sum_hessian":[8E5,5.30714E5,2.69286E5,3.82539E5,1.48175E5,1.94065E5,7.5221E4,1.45328E5,2.37211E5,1.18055E5,3.012E4,9.7831E4,9.6234E4,8.924E3,6.6297E4,7.3684E4,7.1644E4,4.1167E4,1.96044E5,6.615E3,1.1144E5,1.7072E4,1.3048E4,9.678E3,8.8153E4,9.5999E4,2.35E2,5.63E2,8.361E3,6.1449E4,4.848E3,7.3679E4,5E0,3.3055E4,3.8589E4,4.05E2,4.0762E4,1.96007E5,3.7E1,6.596E3,1.9E1,1.10712E5,7.28E2,1.7034E4,3.8E1,1.2725E4,3.23E2,8.974E3,7.04E2,7.8098E4,1.0055E4,6.4721E4,3.1278E4,1.98E2,3.7E1,7.1E1,4.92E2,4.268E3,4.093E3,5.7868E4,3.581E3,1.391E3,3.457E3],"tree_param":{"num_deleted":"0","num_feature":"9","num_nodes":"63","size_leaf_vector":"1"}},{"base_weights":[1.4397203E-6,-4.8247203E-2,9.509061E-2,-6.9680944E-2,7.087752E-3,1.1524421E-1,8.425226E-2,-9.698355E-2,-5.2953586E-2,8.529634E-3,3.2954155E-3,1.0547503E-1,1.2590383E-1,9.112852E-2,7.069236E-2,-9.514085E-2,-9.8627105E-2,-5.6036495E-2,-5.0855942E-2,7.895447E-3,1.5159262E-2,4.2957426E-3,-4.5839357E-3,1.0346927E-1,1.2658918E-1,3.2226168E-2,1.2677877E-1,9.338847E-2,6.777877E-2,7.121213E-2,-8.951767E-2,-7.7682786E-4,-9.515476E-3,-9.747482E-3,-9.877917E-3,-5.8832066E-3,-5.2905153E-3,-5.095157E-3,-1.2994608E-3,1.6477812E-3,7.4434996E-4,-4.4814334E-4,1.6975272E-3,2.983461E-4,9.2210574E-4,-4.1286994E-4,-1.4342907E-2,1.0618318E-2,7.823202E-3,1.7885704E-2,1.1272832E-2,6.2534637E-3,1.8174098E-3,1.2440058E-2,1.5763E-2,9.178302E-3,1.3796078E-2,6.0620713E-3,9.108566E-3,2.911422E-3,7.2604367E-3,-1.1669944E-2,2.916404E-2],"categories":[],"categories_nodes":[],"categories_segments":[],"categories_sizes":[],"default_left":[0,0,0,0,0,0,0,0,0,0,0,0,0,0,0,0,0,0,0,0,0,0,0,0,0,0,0,0,0,0,0,0,0,0,0,0,0,0,0,0,0,0,0,0,0,0,0,0,0,0,0,0,0,0,0,0,0,0,0,0,0,0,0],"id":12,"left_children":[1,3,5,7,9,11,13,15,17,19,21,23,25,27,29,31,33,35,37,39,41,43,45,47,49,51,53,55,57,59,61,-1,-1,-1,-1,-1,-1,-1,-1,-1,-1,-1,-1,-1,-1,-1,-1,-1,-1,-1,-1,-1,-1,-1,-1,-1,-1,-1,-1,-1,-1,-1,-1],"loss_changes":[3.6703477E3,6.2944727E2,5.881128E1,1.7470117E2,8.102126E-1,9.793335E0,1.6321777E1,4.3078613E-1,1.5311279E0,4.5125484E-1,3.2175994E-1,2.0681152E0,3.6864014E0,6.124939E0,4.9132996E0,8.258057E-2,3.7231445E-3,8.3761597E-1,5.10437E-1,3.7994432E-1,3.3435392E-1,2.3408979E-1,2.9009873E-1,3.0660095E0,3.0653915E0,1.7688829E-1,3.25354E0,7.56781E0,1.705677E0,3.4404602E0,2.0128999E0,0E0,0E0,0E0,0E0,0E0,0E0,0E0,0E0,0E0,0E0,0E0,0E0,0E0,0E0,0E0,0E0,0E0,0E0,0E0,0E0,0E0,0E0,0E0,0E0,0E0,0E0,0E0,0E0,0E0,0E0,0E0,0E0],"parents":[2147483647,0,0,1,1,2,2,3,3,4,4,5,5,6,6,7,7,8,8,9,9,10,10,11,11,12,12,13,13,14,14,15,15,16,16,17,17,18,18,19,19,20,20,21,21,22,22,23,23,24,24,25,25,26,26,27,27,28,28,29,29,30,30],"right_children":[2,4,6,8,10,12,14,16,18,20,22,24,26,28,30,32,34,36,38,40,42,44,46,48,50,52,54,56,58,60,62,-1,-1,-1,-1,-1,-1,-1,-1,-1,-1,-1,-1,-1,-1,-1,-1,-1,-1,-1,-1,-1,-1,-1,-1,-1,-1,-1,-1,-1,-1,-1,-1],"split_conditions":[3E1,1.5E1,7.4830055E6,5E0,4.3265464E7,2.32E2,1.7295752E7,3.3335782E8,4.4545455E0,2.8E1,6.490522E7,2.0169161E-2,3.7894738E0,6.125E0,9E0,4.241774E6,4.4436566E8,9E0,2.0169161E-2,2.0548128E7,4.0333333E0,5.1904764E0,9.9122804E-1,6.3809524E0,9.622642E-1,3.17E2,3.5812672E-2,2.0169161E-2,2.0169161E-2,3.5714285E0,9.250105E-1,-7.7682786E-4,-9.515476E-3,-9.747482E-3,-9.877917E-3,-5.8832066E-3,-5.2905153E-3,-5.095157E-3,-1.2994608E-3,1.6477812E-3,7.4434996E-4,-4.4814334E-4,1.6975272E-3,2.983461E-4,9.2210574E-4,-4.1286994E-4,-1.4342907E-2,1.0618318E-2,7.823202E-3,1.7885704E-2,1.1272832E-2,6.2534637E-3,1.8174098E-3,1.2440058E-2,1.5763E-2,9.178302E-3,1.3796078E-2,6.0620713E-3,9.108566E-3,2.911422E-3,7.2604367E-3,-1.1669944E-2,2.916404E-2],"split_indices":[0,0,6,0,6,0,6,6,2,0,6,4,2,2,7,6,6,0,4,6,2,2,4,2,4,0,4,4,4,2,4,0,0,0,0,0,0,0,0,0,0,0,0,0,0,0,0,0,0,0,0,0,0,0,0,0,0,0,0,0,0,0,0],"split_type":[0,0,0,0,0,0,0,0,0,0,0,0,0,0,0,0,0,0,0,0,0,0,0,0,0,0,0,0,0,0,0,0,0,0,0,0,0,0,0,0,0,0,0,0,0,0,0,0,0,0,0,0,0,0,0,0,0,0,0,0,0,0,0],"sum_hessian":[8E5,5.30714E5,2.69286E5,3.82539E5,1.48175E5,9.417E4,1.75116E5,1.45328E5,2.37211E5,1.07356E5,4.0819E4,4.9143E4,4.5027E4,1.1619E5,5.8926E4,6.8541E4,7.6787E4,9.6038E4,1.41173E5,9.7985E4,9.371E3,3.6221E4,4.598E3,4.4885E4,4.258E3,4.17E2,4.461E4,1.05934E5,1.0256E4,5.8736E4,1.9E2,1.1E1,6.853E4,9.027E3,6.776E4,5.073E4,4.5308E4,1.40817E5,3.56E2,4.9E3,9.3085E4,7.93E2,8.578E3,2.8602E4,7.619E3,4.584E3,1.4E1,4.0524E4,4.361E3,8.9E2,3.368E3,1.31E2,2.86E2,4.1422E4,3.188E3,1.02254E5,3.68E3,7.849E3,2.407E3,1.881E3,5.6855E4,1.78E2,1.2E1],"tree_param":{"num_deleted":"0","num_feature":"9","num_nodes":"63","size_leaf_vector":"1"}},{"base_weights":[1.411696E-6,-4.3422587E-2,8.558211E-2,-6.2712975E-2,6.3789133E-3,1.07540675E-1,7.742888E-2,-8.72854E-2,-4.7658302E-2,4.6318285E-3,9.044158E-3,1.0359236E-1,1.2748179E-1,8.673145E-2,6.7822E-2,-8.859725E-2,-8.534305E-2,-4.64942E-2,-5.2477226E-2,5.5483496E-3,-3.2817656E-3,7.326509E-3,1.547458E-2,9.575466E-2,1.0892508E-1,3.3750672E-2,1.3011077E-1,6.5533E-2,8.8975534E-2,7.046006E-2,5.3551942E-2,-3.3407924E-3,-8.860705E-3,-8.637955E-3,-8.377893E-3,-4.396529E-3,-4.766859E-3,-9.408461E-3,-5.211411E-3,3.2691282E-4,1.0914401E-3,-3.0966057E-4,-2.4841458E-2,7.405245E-4,-8.626661E-3,1.5306136E-3,1.0929893E-2,9.368872E-3,1.1503126E-2,1.109961E-2,7.7479645E-3,-7.46783E-4,4.718909E-3,1.2741632E-2,1.6825227E-2,6.3106418E-3,9.840474E-3,9.063736E-3,6.326873E-3,7.168556E-3,3.9124815E-3,5.528198E-3,-1.0708331E-2],"categories":[],"categories_nodes":[],"categories_segments":[],"categories_sizes":[],"default_left":[0,0,0,0,0,0,0,0,0,0,0,0,0,0,0,0,0,0,0,0,0,0,0,0,0,0,0,0,0,0,0,0,0,0,0,0,0,0,0,0,0,0,0,0,0,0,0,0,0,0,0,0,0,0,0,0,0,0,0,0,0,0,0],"id":13,"left_children":[1,3,5,7,9,11,13,15,17,19,21,23,25,27,29,31,33,35,37,39,41,43,45,47,49,51,53,55,57,59,61,-1,-1,-1,-1,-1,-1,-1,-1,-1,-1,-1,-1,-1,-1,-1,-1,-1,-1,-1,-1,-1,-1,-1,-1,-1,-1,-1,-1,-1,-1,-1,-1],"loss_changes":[2.9730122E3,5.098531E2,4.8203125E1,1.4150879E2,6.8992615E-1,5.727356E0,1.7543945E1,3.626709E-1,1.3282471E0,6.4921033E-1,6.4790964E-1,2.5335083E0,2.9639282E0,4.7401123E0,3.6332397E0,4.3945312E-2,8.779907E-2,5.6533813E-1,6.922989E-1,9.810519E-1,4.2093825E-1,3.418603E-1,1.9377685E-1,9.710083E-1,2.349823E0,1.831432E-1,1.1827393E0,7.558708E-1,3.8481445E0,3.1282654E0,4.1961746E0,0E0,0E0,0E0,0E0,0E0,0E0,0E0,0E0,0E0,0E0,0E0,0E0,0E0,0E0,0E0,0E0,0E0,0E0,0E0,0E0,0E0,0E0,0E0,0E0,0E0,0E0,0E0,0E0,0E0,0E0,0E0,0E0],"parents":[2147483647,0,0,1,1,2,2,3,3,4,4,5,5,6,6,7,7,8,8,9,9,10,10,11,11,12,12,13,13,14,14,15,15,16,16,17,17,18,18,19,19,20,20,21,21,22,22,23,23,24,24,25,25,26,26,27,27,28,28,29,29,30,30],"right_children":[2,4,6,8,10,12,14,16,18,20,22,24,26,28,30,32,34,36,38,40,42,44,46,48,50,52,54,56,58,60,62,-1,-1,-1,-1,-1,-1,-1,-1,-1,-1,-1,-1,-1,-1,-1,-1,-1,-1,-1,-1,-1,-1,-1,-1,-1,-1,-1,-1,-1,-1,-1,-1],"split_conditions":[3E1,1.5E1,6.0363175E6,5E0,2.2E1,3.66E2,1.3472905E7,3E0,1.1842048E8,6.25E0,5.448363E0,2.17E2,3.9722223E0,6.1E1,2.73422E7,7.7102465E6,2.0803262E8,5.8962452E7,2E0,5.1904764E0,9E0,7E0,9.985272E-1,2.0169161E-2,6.3333335E0,3.5E0,3.5812672E-2,2.0169161E-2,6.5E0,6.625E0,8E0,-3.3407924E-3,-8.860705E-3,-8.637955E-3,-8.377893E-3,-4.396529E-3,-4.766859E-3,-9.408461E-3,-5.211411E-3,3.2691282E-4,1.0914401E-3,-3.0966057E-4,-2.4841458E-2,7.405245E-4,-8.626661E-3,1.5306136E-3,1.0929893E-2,9.368872E-3,1.1503126E-2,1.109961E-2,7.7479645E-3,-7.46783E-4,4.718909E-3,1.2741632E-2,1.6825227E-2,6.3106418E-3,9.840474E-3,9.063736E-3,6.326873E-3,7.168556E-3,3.9124815E-3,5.528198E-3,-1.0708331E-2],"split_indices":[0,0,6,0,0,0,6,0,6,2,2,0,2,0,6,6,6,6,2,2,7,7,4,4,2,2,4,4,2,2,7,0,0,0,0,0,0,0,0,0,0,0,0,0,0,0,0,0,0,0,0,0,0,0,0,0,0,0,0,0,0,0,0],"split_type":[0,0,0,0,0,0,0,0,0,0,0,0,0,0,0,0,0,0,0,0,0,0,0,0,0,0,0,0,0,0,0,0,0,0,0,0,0,0,0,0,0,0,0,0,0,0,0,0,0,0,0,0,0,0,0,0,0,0,0,0,0,0,0],"sum_hessian":[8E5,5.30714E5,2.69286E5,3.82539E5,1.48175E5,7.291E4,1.96376E5,1.45328E5,2.37211E5,8.9506E4,5.8669E4,6.0865E4,1.2045E4,9.9764E4,9.6612E4,8.6716E4,5.8612E4,1.91066E5,4.6145E4,8.0216E4,9.29E3,4.6303E4,1.2366E4,2.4652E4,3.6213E4,3.29E2,1.1716E4,9.553E3,9.0211E4,8.1535E4,1.5077E4,1.6E1,8.67E4,3.5219E4,2.3393E4,6.0603E4,1.30463E5,3.97E2,4.5748E4,5.6303E4,2.3913E4,9.284E3,6E0,4.6265E4,3.8E1,1.2345E4,2.1E1,2.2271E4,2.381E3,3.3973E4,2.24E3,8.1E1,2.48E2,1.0947E4,7.69E2,8.899E3,6.54E2,8.4731E4,5.48E3,7.8465E4,3.07E3,1.4917E4,1.6E2],"tree_param":{"num_deleted":"0","num_feature":"9","num_nodes":"63","size_leaf_vector":"1"}},{"base_weights":[1.3197977E-6,-3.9080467E-2,7.702431E-2,-5.6441817E-2,5.740893E-3,6.69892E-2,9.1632925E-2,-7.855706E-2,-4.2892575E-2,-2.8624448E-3,6.2405523E-3,5.9724428E-2,7.5241275E-2,1.0442248E-1,8.607381E-2,-7.708408E-2,-7.998292E-2,-4.7697548E-2,-4.188335E-2,-1.3400717E-3,-1.05387494E-1,5.984561E-3,3.704506E-2,2.6280716E-2,6.1067212E-2,8.240771E-2,5.743378E-2,1.2188462E-1,1.0052452E-1,8.418477E-2,1.0808475E-1,-7.708824E-3,1.1020048E-2,-7.990438E-3,-8.248127E-3,-6.957277E-3,-4.7071115E-3,-4.1906885E-3,8.061069E-3,-1.4482041E-4,1.7219951E-2,4.2764167E-3,-1.2396047E-2,4.4380288E-4,8.328016E-4,1.4320547E-2,1.504213E-3,-4.5023323E-3,3.070562E-3,5.999594E-3,1.0224968E-2,8.713043E-3,6.0849343E-3,5.2989656E-3,8.034225E-3,6.707149E-3,1.24920225E-2,9.8565705E-3,1.2559106E-2,2.615459E-3,8.490713E-3,1.6665524E-2,8.781941E-3],"categories":[],"categories_nodes":[],"categories_segments":[],"categories_sizes":[],"default_left":[0,0,0,0,0,0,0,0,0,0,0,0,0,0,0,0,0,0,0,0,0,0,0,0,0,0,0,0,0,0,0,0,0,0,0,0,0,0,0,0,0,0,0,0,0,0,0,0,0,0,0,0,0,0,0,0,0,0,0,0,0,0,0],"id":14,"left_children":[1,3,5,7,9,11,13,15,17,19,21,23,25,27,29,31,33,35,37,39,41,43,45,47,49,51,53,55,57,59,61,-1,-1,-1,-1,-1,-1,-1,-1,-1,-1,-1,-1,-1,-1,-1,-1,-1,-1,-1,-1,-1,-1,-1,-1,-1,-1,-1,-1,-1,-1,-1,-1],"loss_changes":[2.408163E3,4.1298108E2,3.947119E1,1.1462268E2,6.369877E-1,9.565552E0,7.7872314E0,2.9901123E-1,1.148346E0,1.2694247E0,1.104114E0,3.8110962E0,9.532654E0,2.2487488E0,3.1691284E0,6.4208984E-2,7.93457E-3,5.608673E-1,5.6851196E-1,1.5067181E-1,3.3274353E-1,5.0333166E-1,2.6934052E0,1.0359507E0,3.5949097E0,5.4200745E0,2.1794205E0,9.9944305E-1,1.321228E0,2.948822E0,7.152176E0,0E0,0E0,0E0,0E0,0E0,0E0,0E0,0E0,0E0,0E0,0E0,0E0,0E0,0E0,0E0,0E0,0E0,0E0,0E0,0E0,0E0,0E0,0E0,0E0,0E0,0E0,0E0,0E0,0E0,0E0,0E0,0E0],"parents":[2147483647,0,0,1,1,2,2,3,3,4,4,5,5,6,6,7,7,8,8,9,9,10,10,11,11,12,12,13,13,14,14,15,15,16,16,17,17,18,18,19,19,20,20,21,21,22,22,23,23,24,24,25,25,26,26,27,27,28,28,29,29,30,30],"right_children":[2,4,6,8,10,12,14,16,18,20,22,24,26,28,30,32,34,36,38,40,42,44,46,48,50,52,54,56,58,60,62,-1,-1,-1,-1,-1,-1,-1,-1,-1,-1,-1,-1,-1,-1,-1,-1,-1,-1,-1,-1,-1,-1,-1,-1,-1,-1,-1,-1,-1,-1,-1,-1],"split_conditions":[3E1,1.5E1,1.15E2,5E0,3.75E0,5.1363635E0,4.104758E6,3.595167E8,3.857143E0,6.25E-1,2.0169161E-2,3.7142856E0,5.75E0,2.6190065E6,2.0169161E-2,9.9671054E-1,3E0,2.5E0,3E0,2.0169161E-2,2.1E1,2.2E1,9.705635E-1,2.5E0,2.0169161E-2,1.7691104E7,2.0169161E-2,4.487805E0,3.5812672E-2,3.75E0,9.57498E-1,-7.708824E-3,1.1020048E-2,-7.990438E-3,-8.248127E-3,-6.957277E-3,-4.7071115E-3,-4.1906885E-3,8.061069E-3,-1.4482041E-4,1.7219951E-2,4.2764167E-3,-1.2396047E-2,4.4380288E-4,8.328016E-4,1.4320547E-2,1.504213E-3,-4.5023323E-3,3.070562E-3,5.999594E-3,1.0224968E-2,8.713043E-3,6.0849343E-3,5.2989656E-3,8.034225E-3,6.707149E-3,1.24920225E-2,9.8565705E-3,1.2559106E-2,2.615459E-3,8.490713E-3,1.6665524E-2,8.781941E-3],"split_indices":[0,0,0,0,2,2,6,6,2,4,4,2,2,6,4,4,0,2,7,4,0,0,4,2,4,6,4,2,4,2,4,0,0,0,0,0,0,0,0,0,0,0,0,0,0,0,0,0,0,0,0,0,0,0,0,0,0,0,0,0,0,0,0],"split_type":[0,0,0,0,0,0,0,0,0,0,0,0,0,0,0,0,0,0,0,0,0,0,0,0,0,0,0,0,0,0,0,0,0,0,0,0,0,0,0,0,0,0,0,0,0,0,0,0,0,0,0,0,0,0,0,0,0,0,0,0,0,0,0],"sum_hessian":[8E5,5.30714E5,2.69286E5,3.82539E5,1.48175E5,1.59634E5,1.09652E5,1.45328E5,2.37211E5,8.133E3,1.40042E5,8.49E4,7.4734E4,3.3216E4,7.6436E4,7.151E4,7.3818E4,4.1167E4,1.96044E5,8.015E3,1.18E2,1.38889E5,1.153E3,3.278E3,8.1622E4,5.3286E4,2.1448E4,6.056E3,2.716E4,7.0399E4,6.037E3,7.1509E4,1E0,7.16E4,2.218E3,1.143E3,4.0024E4,1.96007E5,3.7E1,8.011E3,4E0,1.3E1,1.05E2,8.3673E4,5.5216E4,1.97E2,9.56E2,1.91E2,3.087E3,7.9555E4,2.067E3,4.3708E4,9.578E3,1.7966E4,3.482E3,3.19E2,5.737E3,2.5196E4,1.964E3,8.66E2,6.9533E4,1.55E3,4.487E3],"tree_param":{"num_deleted":"0","num_feature":"9","num_nodes":"63","size_leaf_vector":"1"}},{"base_weights":[1.341562E-6,-3.5172414E-2,6.9322325E-2,-5.0797693E-2,5.1669735E-3,6.2466193E-2,8.7009616E-2,-7.070144E-2,-3.8603358E-2,6.9445535E-3,3.0549837E-3,5.379736E-2,6.916745E-2,1.0614959E-1,8.4431686E-2,-7.20242E-2,-6.934004E-2,-3.6460556E-2,-4.0648293E-2,6.6269124E-3,3.6579825E-2,1.8335269E-3,8.331188E-3,4.6977513E-2,6.017019E-2,6.873616E-2,1.4716767E-1,6.287815E-2,1.0905547E-1,4.031274E-2,8.536477E-2,-7.2032064E-3,3.6619564E-3,-7.049113E-3,-6.8352236E-3,-3.5453327E-3,-4.324845E-3,-4.161405E-3,-3.4388166E-3,7.5025944E-4,1.426052E-4,1.37677165E-2,1.653592E-3,1.9902068E-4,-3.1028825E-3,7.492983E-4,5.014438E-3,4.749384E-3,-9.6413735E-3,5.1991236E-3,6.75791E-3,5.1497794E-3,7.0517412E-3,2.1430448E-2,4.5289756E-3,1.18292985E-4,7.972676E-3,1.1200408E-2,7.312126E-3,1.129491E-3,5.0096684E-3,8.37269E-3,1.0630045E-2],"categories":[],"categories_nodes":[],"categories_segments":[],"categories_sizes":[],"default_left":[0,0,0,0,0,0,0,0,0,0,0,0,0,0,0,0,0,0,0,0,0,0,0,0,0,0,0,0,0,0,0,0,0,0,0,0,0,0,0,0,0,0,0,0,0,0,0,0,0,0,0,0,0,0,0,0,0,0,0,0,0,0,0],"id":15,"left_children":[1,3,5,7,9,11,13,15,17,19,21,23,25,27,29,31,33,35,37,39,41,43,45,47,49,51,53,55,57,59,61,-1,-1,-1,-1,-1,-1,-1,-1,-1,-1,-1,-1,-1,-1,-1,-1,-1,-1,-1,-1,-1,-1,-1,-1,-1,-1,-1,-1,-1,-1,-1,-1],"loss_changes":[1.9506287E3,3.345174E2,3.2650024E1,9.284473E1,5.5626583E-1,1.12699585E1,3.7025757E0,2.5671387E-1,1.0379333E0,7.5713015E-1,4.3641686E-1,3.6747437E0,3.671997E0,1.115387E0,2.72583E0,6.567383E-2,7.6660156E-2,7.904968E-1,7.323303E-1,3.6253428E-1,1.7262304E0,2.83203E-1,4.4578546E-1,3.0311203E0,2.646881E0,3.338684E0,4.1009903E0,5.861721E-1,8.778229E-1,3.898089E-1,2.2173462E0,0E0,0E0,0E0,0E0,0E0,0E0,0E0,0E0,0E0,0E0,0E0,0E0,0E0,0E0,0E0,0E0,0E0,0E0,0E0,0E0,0E0,0E0,0E0,0E0,0E0,0E0,0E0,0E0,0E0,0E0,0E0,0E0],"parents":[2147483647,0,0,1,1,2,2,3,3,4,4,5,5,6,6,7,7,8,8,9,9,10,10,11,11,12,12,13,13,14,14,15,15,16,16,17,17,18,18,19,19,20,20,21,21,22,22,23,23,24,24,25,25,26,26,27,27,28,28,29,29,30,30],"right_children":[2,4,6,8,10,12,14,16,18,20,22,24,26,28,30,32,34,36,38,40,42,44,46,48,50,52,54,56,58,60,62,-1,-1,-1,-1,-1,-1,-1,-1,-1,-1,-1,-1,-1,-1,-1,-1,-1,-1,-1,-1,-1,-1,-1,-1,-1,-1,-1,-1,-1,-1,-1,-1],"split_conditions":[3E1,1.5E1,1.78E2,5E0,3.722682E7,6.1E1,2.826694E6,2E0,7.885778E7,2.0169161E-2,5.3076925E0,4.9E0,1E0,4.487805E0,4E0,2.0169161E-2,4.2727275E0,6.769231E0,5.564516E0,6.1666665E0,9.878049E-1,6.25E-1,2.6E1,7E0,4.4E1,4.3333335E0,8.312369E-1,3.42E2,6.3809524E0,3.375E0,2.0169161E-2,-7.2032064E-3,3.6619564E-3,-7.049113E-3,-6.8352236E-3,-3.5453327E-3,-4.324845E-3,-4.161405E-3,-3.4388166E-3,7.5025944E-4,1.426052E-4,1.37677165E-2,1.653592E-3,1.9902068E-4,-3.1028825E-3,7.492983E-4,5.014438E-3,4.749384E-3,-9.6413735E-3,5.1991236E-3,6.75791E-3,5.1497794E-3,7.0517412E-3,2.1430448E-2,4.5289756E-3,1.18292985E-4,7.972676E-3,1.1200408E-2,7.312126E-3,1.129491E-3,5.0096684E-3,8.37269E-3,1.0630045E-2],"split_indices":[0,0,0,0,6,0,6,0,6,4,2,2,7,2,2,4,2,2,2,2,4,4,0,7,0,2,4,0,2,2,4,0,0,0,0,0,0,0,0,0,0,0,0,0,0,0,0,0,0,0,0,0,0,0,0,0,0,0,0,0,0,0,0],"split_type":[0,0,0,0,0,0,0,0,0,0,0,0,0,0,0,0,0,0,0,0,0,0,0,0,0,0,0,0,0,0,0,0,0,0,0,0,0,0,0,0,0,0,0,0,0,0,0,0,0,0,0,0,0,0,0,0,0,0,0,0,0,0,0],"sum_hessian":[8E5,5.30714E5,2.69286E5,3.82539E5,1.48175E5,1.94065E5,7.5221E4,1.45328E5,2.37211E5,8.0456E4,6.7719E4,8.4615E4,1.0945E5,8.924E3,6.6297E4,7.3684E4,7.1644E4,1.15843E5,1.21368E5,7.9604E4,8.52E2,5.499E4,1.2729E4,4.0878E4,4.3737E4,1.0885E5,6E2,5.63E2,8.361E3,1.374E3,6.4923E4,7.3679E4,5E0,3.3055E4,3.8589E4,1.0088E5,1.4963E4,1.05142E5,1.6226E4,6.8132E4,1.1472E4,1.4E2,7.12E2,5.473E4,2.6E2,1.248E4,2.49E2,4.0732E4,1.46E2,2.0792E4,2.2945E4,1.0197E4,9.8653E4,3.61E2,2.39E2,1.21E2,4.42E2,7.725E3,6.36E2,3.47E2,1.027E3,6.0217E4,4.706E3],"tree_param":{"num_deleted":"0","num_feature":"9","num_nodes":"63","size_leaf_vector":"1"}},{"base_weights":[1.3104524E-6,-3.16552E-2,6.2390454E-2,-4.571801E-2,4.6504E-3,7.8901365E-2,5.6259952E-2,-6.363142E-2,-3.474308E-2,5.3662886E-3,6.0553746E-5,7.569064E-2,9.5117934E-2,6.320946E-2,4.9083136E-2,-6.463862E-2,-6.21402E-2,-3.702714E-2,-3.3000547E-2,4.6004304E-3,9.036883E-3,-3.0627642E-3,5.447822E-3,7.7788435E-2,5.876495E-2,1.7478812E-2,9.729646E-2,6.2822595E-2,1.4326632E-1,4.9335778E-2,-5.4298576E-2,-1.6889581E-3,-6.4647244E-3,-6.3116015E-3,-6.066845E-3,-3.9282977E-3,-3.4531646E-3,-3.2321524E-3,-3.7872158E-3,4.6158882E-4,-2.0088464E-2,-2.431333E-3,9.470065E-4,-3.28073E-4,6.0953484E-3,-8.1998E-4,7.922938E-4,7.4135917E-3,8.785172E-3,4.719421E-3,8.214555E-3,-1.6877974E-3,2.8722899E-3,9.510054E-3,1.2839218E-2,6.4347996E-3,4.2853192E-3,1.8712945E-2,2.531595E-3,4.8291287E-3,7.85249E-3,-8.60799E-3,1.1356407E-2],"categories":[],"categories_nodes":[],"categories_segments":[],"categories_sizes":[],"default_left":[0,0,0,0,0,0,0,0,0,0,0,0,0,0,0,0,0,0,0,0,0,0,0,0,0,0,0,0,0,0,0,0,0,0,0,0,0,0,0,0,0,0,0,0,0,0,0,0,0,0,0,0,0,0,0,0,0,0,0,0,0,0,0],"id":16,"left_children":[1,3,5,7,9,11,13,15,17,19,21,23,25,27,29,31,33,35,37,39,41,43,45,47,49,51,53,55,57,59,61,-1,-1,-1,-1,-1,-1,-1,-1,-1,-1,-1,-1,-1,-1,-1,-1,-1,-1,-1,-1,-1,-1,-1,-1,-1,-1,-1,-1,-1,-1,-1,-1],"loss_changes":[1.580022E3,2.709613E2,2.7252808E1,7.520453E1,4.8687887E-1,3.7890625E0,9.79126E0,2.1429443E-1,9.428711E-1,3.6030054E-1,3.3643875E-1,2.1565552E0,2.035736E0,3.0808105E0,2.5260468E0,3.4606934E-2,8.035278E-2,5.764923E-1,4.4392395E-1,3.3779716E-1,3.1989253E-1,1.7680737E-1,2.4793857E-1,1.9838562E0,1.8130112E0,1.2796733E-1,7.878723E-1,3.0216675E0,2.4734526E0,2.934555E0,1.268811E0,0E0,0E0,0E0,0E0,0E0,0E0,0E0,0E0,0E0,0E0,0E0,0E0,0E0,0E0,0E0,0E0,0E0,0E0,0E0,0E0,0E0,0E0,0E0,0E0,0E0,0E0,0E0,0E0,0E0,0E0,0E0,0E0],"parents":[2147483647,0,0,1,1,2,2,3,3,4,4,5,5,6,6,7,7,8,8,9,9,10,10,11,11,12,12,13,13,14,14,15,15,16,16,17,17,18,18,19,19,20,20,21,21,22,22,23,23,24,24,25,25,26,26,27,27,28,28,29,29,30,30],"right_children":[2,4,6,8,10,12,14,16,18,20,22,24,26,28,30,32,34,36,38,40,42,44,46,48,50,52,54,56,58,60,62,-1,-1,-1,-1,-1,-1,-1,-1,-1,-1,-1,-1,-1,-1,-1,-1,-1,-1,-1,-1,-1,-1,-1,-1,-1,-1,-1,-1,-1,-1,-1,-1],"split_conditions":[3E1,1.5E1,6.0363175E6,5E0,5.076965E7,3.66E2,1.3472905E7,3E0,4.5094337E0,2.6E1,1.8E1,6.3333335E0,3.9722223E0,1E0,9E0,7.7102465E6,2.0803262E8,9E0,6.857143E0,1.1E1,3.4285715E0,2.0169161E-2,3.5E0,5.448363E0,2.0169161E-2,3.5E0,3.5812672E-2,6.5E0,9.622642E-1,2.0169161E-2,9.250105E-1,-1.6889581E-3,-6.4647244E-3,-6.3116015E-3,-6.066845E-3,-3.9282977E-3,-3.4531646E-3,-3.2321524E-3,-3.7872158E-3,4.6158882E-4,-2.0088464E-2,-2.431333E-3,9.470065E-4,-3.28073E-4,6.0953484E-3,-8.1998E-4,7.922938E-4,7.4135917E-3,8.785172E-3,4.719421E-3,8.214555E-3,-1.6877974E-3,2.8722899E-3,9.510054E-3,1.2839218E-2,6.4347996E-3,4.2853192E-3,1.8712945E-2,2.531595E-3,4.8291287E-3,7.85249E-3,-8.60799E-3,1.1356407E-2],"split_indices":[0,0,6,0,6,0,6,0,2,0,0,2,2,7,7,6,6,0,2,7,2,4,2,2,4,2,4,2,4,4,4,0,0,0,0,0,0,0,0,0,0,0,0,0,0,0,0,0,0,0,0,0,0,0,0,0,0,0,0,0,0,0,0],"split_type":[0,0,0,0,0,0,0,0,0,0,0,0,0,0,0,0,0,0,0,0,0,0,0,0,0,0,0,0,0,0,0,0,0,0,0,0,0,0,0,0,0,0,0,0,0,0,0,0,0,0,0,0,0,0,0,0,0,0,0,0,0,0,0],"sum_hessian":[8E5,5.30714E5,2.69286E5,3.82539E5,1.48175E5,7.291E4,1.96376E5,1.45328E5,2.37211E5,1.28182E5,1.9993E4,6.0865E4,1.2045E4,9.9764E4,9.6612E4,8.6716E4,5.8612E4,1.02646E5,1.34565E5,1.06056E5,2.2126E4,1.2656E4,7.337E3,5.415E4,6.715E3,3.29E2,1.1716E4,9.9286E4,4.78E2,9.6377E4,2.35E2,1.6E1,8.67E4,3.5219E4,2.3393E4,5.3904E4,4.8742E4,1.1811E5,1.6455E4,1.06049E5,7E0,2.83E2,2.1843E4,1.2614E4,4.2E1,1.126E3,6.211E3,3.9736E4,1.4414E4,4.494E3,2.221E3,8.1E1,2.48E2,1.0947E4,7.69E2,9.2238E4,7.048E3,3.48E2,1.3E2,9.305E4,3.327E3,1.98E2,3.7E1],"tree_param":{"num_deleted":"0","num_feature":"9","num_nodes":"63","size_leaf_vector":"1"}},{"base_weights":[1.2479063E-6,-2.848977E-2,5.615179E-2,-4.1146297E-2,4.185264E-3,7.101196E-2,5.0634205E-2,-5.7268415E-2,-3.1268835E-2,-2.9024454E-3,4.596904E-3,6.8122074E-2,8.560811E-2,5.466541E-2,4.0597424E-2,-5.608975E-2,-5.831976E-2,-3.0397143E-2,-3.514685E-2,-1.5802274E-3,-9.194444E-2,4.3833144E-3,3.0299516E-2,7.026551E-2,5.437017E-2,1.573453E-2,8.756874E-2,5.6056883E-2,3.2570865E-2,4.100851E-2,-6.8308E-2,-5.6874417E-3,-5.488479E-3,-5.829375E-3,-6.2022745E-3,-3.0417761E-3,7.8332415E-3,-7.019593E-3,-3.4824256E-3,-1.6783066E-4,1.5589786E-2,3.8225024E-3,-1.0826924E-2,3.7380873E-4,7.9818786E-4,1.1897049E-2,1.1922139E-3,6.6722534E-3,8.115774E-3,4.5864764E-3,7.4343137E-3,2.5712738E-3,-1.9746465E-3,1.0021653E-2,8.2698E-3,5.4670433E-3,8.978763E-3,2.072927E-3,4.9607074E-3,3.4223517E-4,4.20233E-3,-9.480266E-3,1.9078076E-2],"categories":[],"categories_nodes":[],"categories_segments":[],"categories_sizes":[],"default_left":[0,0,0,0,0,0,0,0,0,0,0,0,0,0,0,0,0,0,0,0,0,0,0,0,0,0,0,0,0,0,0,0,0,0,0,0,0,0,0,0,0,0,0,0,0,0,0,0,0,0,0,0,0,0,0,0,0,0,0,0,0,0,0],"id":17,"left_children":[1,3,5,7,9,11,13,15,17,19,21,23,25,27,29,31,33,35,37,39,41,43,45,47,49,51,53,55,57,59,61,-1,-1,-1,-1,-1,-1,-1,-1,-1,-1,-1,-1,-1,-1,-1,-1,-1,-1,-1,-1,-1,-1,-1,-1,-1,-1,-1,-1,-1,-1,-1,-1],"loss_changes":[1.2798322E3,2.194786E2,2.2075806E1,6.0916077E1,4.3232894E-1,3.0696716E0,7.943268E0,1.7678833E-1,8.0081177E-1,9.574944E-1,7.6867557E-1,1.7902527E0,1.6488876E0,4.30542E0,2.522232E0,6.1691284E-2,3.7841797E-3,4.3658447E-1,4.897194E-1,1.2407132E-1,2.5701237E-1,3.2245803E-1,1.8790705E0,2.0265808E0,1.3916302E0,1.17339864E-1,7.1352386E-1,6.158844E0,1.6739845E0,2.1382904E0,1.4733534E0,0E0,0E0,0E0,0E0,0E0,0E0,0E0,0E0,0E0,0E0,0E0,0E0,0E0,0E0,0E0,0E0,0E0,0E0,0E0,0E0,0E0,0E0,0E0,0E0,0E0,0E0,0E0,0E0,0E0,0E0,0E0,0E0],"parents":[2147483647,0,0,1,1,2,2,3,3,4,4,5,5,6,6,7,7,8,8,9,9,10,10,11,11,12,12,13,13,14,14,15,15,16,16,17,17,18,18,19,19,20,20,21,21,22,22,23,23,24,24,25,25,26,26,27,27,28,28,29,29,30,30],"right_children":[2,4,6,8,10,12,14,16,18,20,22,24,26,28,30,32,34,36,38,40,42,44,46,48,50,52,54,56,58,60,62,-1,-1,-1,-1,-1,-1,-1,-1,-1,-1,-1,-1,-1,-1,-1,-1,-1,-1,-1,-1,-1,-1,-1,-1,-1,-1,-1,-1,-1,-1,-1,-1],"split_conditions":[3E1,1.5E1,6.0363175E6,5E0,3.75E0,3.66E2,1.7691104E7,3.3335782E8,1.2063617E8,6.25E-1,2.0169161E-2,6.1666665E0,3.9722223E0,6.625E0,8E0,2.0803262E8,4E0,3E0,2E0,2.0169161E-2,2.1E1,2.6E1,9.705635E-1,5.448363E0,2.0169161E-2,4.511701E6,2.6190065E6,2.0169161E-2,8E0,3.5E0,9.250105E-1,-5.6874417E-3,-5.488479E-3,-5.829375E-3,-6.2022745E-3,-3.0417761E-3,7.8332415E-3,-7.019593E-3,-3.4824256E-3,-1.6783066E-4,1.5589786E-2,3.8225024E-3,-1.0826924E-2,3.7380873E-4,7.9818786E-4,1.1897049E-2,1.1922139E-3,6.6722534E-3,8.115774E-3,4.5864764E-3,7.4343137E-3,2.5712738E-3,-1.9746465E-3,1.0021653E-2,8.2698E-3,5.4670433E-3,8.978763E-3,2.072927E-3,4.9607074E-3,3.4223517E-4,4.20233E-3,-9.480266E-3,1.9078076E-2],"split_indices":[0,0,6,0,2,0,6,6,6,4,4,2,2,2,7,6,0,7,2,4,0,0,4,2,4,6,6,4,2,2,4,0,0,0,0,0,0,0,0,0,0,0,0,0,0,0,0,0,0,0,0,0,0,0,0,0,0,0,0,0,0,0,0],"split_type":[0,0,0,0,0,0,0,0,0,0,0,0,0,0,0,0,0,0,0,0,0,0,0,0,0,0,0,0,0,0,0,0,0,0,0,0,0,0,0,0,0,0,0,0,0,0,0,0,0,0,0,0,0,0,0,0,0,0,0,0,0,0,0],"sum_hessian":[8E5,5.30714E5,2.69286E5,3.82539E5,1.48175E5,7.291E4,1.96376E5,1.45328E5,2.37211E5,8.133E3,1.40042E5,6.0865E4,1.2045E4,1.40101E5,5.6275E4,6.8541E4,7.6787E4,1.93684E5,4.3527E4,8.015E3,1.18E2,1.38889E5,1.153E3,5.2654E4,8.211E3,3.29E2,1.1716E4,1.31799E5,8.302E3,5.6064E4,2.11E2,4.1482E4,2.7059E4,7.6268E4,5.19E2,1.93648E5,3.6E1,3.95E2,4.3132E4,8.011E3,4E0,1.3E1,1.05E2,1.17774E5,2.1115E4,1.97E2,9.56E2,3.9736E4,1.2918E4,5.761E3,2.45E3,2.57E2,7.2E1,3.252E3,8.464E3,1.26598E5,5.201E3,4.899E3,3.403E3,1.474E3,5.459E4,1.92E2,1.9E1],"tree_param":{"num_deleted":"0","num_feature":"9","num_nodes":"63","size_leaf_vector":"1"}},{"base_weights":[1.2147403E-6,-2.5640808E-2,5.053691E-2,-3.7031744E-2,3.7668876E-3,4.5265734E-2,6.3428186E-2,-5.154174E-2,-2.8141975E-2,4.047798E-3,-5.003792E-3,3.673203E-2,4.943685E-2,7.2933786E-2,6.0064033E-2,-5.2551385E-2,-5.050262E-2,-3.0069452E-2,-2.6549622E-2,4.05879E-3,-1.9371715E-1,-4.4586514E-3,-8.029629E-2,1.6214322E-2,3.8628686E-2,5.210776E-2,3.745997E-2,7.4544296E-2,5.044514E-2,2.4317732E-2,6.090983E-2,-5.2558444E-3,4.289877E-3,-5.3504645E-3,-5.015449E-3,-3.2083124E-3,-2.7901568E-3,-2.589744E-3,-3.1044325E-3,3.9183008E-4,2.044797E-3,-2.330177E-2,4.069337E-3,-4.8265271E-4,8.877987E-3,-1.4974616E-2,2.8533116E-4,-4.4111754E-3,1.9152405E-3,3.2366829E-3,4.4128764E-3,5.096582E-3,8.803829E-3,3.2324016E-3,5.7115885E-3,6.9246613E-3,8.368197E-3,3.9691054E-3,1.085732E-2,-2.272807E-4,3.3468876E-3,6.1275465E-3,-2.5984084E-3],"categories":[],"categories_nodes":[],"categories_segments":[],"categories_sizes":[],"default_left":[0,0,0,0,0,0,0,0,0,0,0,0,0,0,0,0,0,0,0,0,0,0,0,0,0,0,0,0,0,0,0,0,0,0,0,0,0,0,0,0,0,0,0,0,0,0,0,0,0,0,0,0,0,0,0,0,0,0,0,0,0,0,0],"id":18,"left_children":[1,3,5,7,9,11,13,15,17,19,21,23,25,27,29,31,33,35,37,39,41,43,45,47,49,51,53,55,57,59,61,-1,-1,-1,-1,-1,-1,-1,-1,-1,-1,-1,-1,-1,-1,-1,-1,-1,-1,-1,-1,-1,-1,-1,-1,-1,-1,-1,-1,-1,-1,-1,-1],"loss_changes":[1.0366726E3,1.7777966E2,1.8295776E1,4.934253E1,3.6509275E-1,6.801697E0,2.494751E0,1.4981079E-1,7.2724915E-1,3.1288886E-1,1.8840788E-1,2.4415283E0,4.1048584E0,7.359619E-1,1.743866E0,5.192566E-2,7.217407E-2,4.6754456E-1,3.7999725E-1,3.3049178E-1,8.318198E-2,1.5707746E-1,1.9099331E-1,9.4235957E-1,1.9770126E0,4.30249E0,2.3617363E0,9.1672516E-1,8.50847E-1,3.2517004E-1,1.7932892E0,0E0,0E0,0E0,0E0,0E0,0E0,0E0,0E0,0E0,0E0,0E0,0E0,0E0,0E0,0E0,0E0,0E0,0E0,0E0,0E0,0E0,0E0,0E0,0E0,0E0,0E0,0E0,0E0,0E0,0E0,0E0,0E0],"parents":[2147483647,0,0,1,1,2,2,3,3,4,4,5,5,6,6,7,7,8,8,9,9,10,10,11,11,12,12,13,13,14,14,15,15,16,16,17,17,18,18,19,19,20,20,21,21,22,22,23,23,24,24,25,25,26,26,27,27,28,28,29,29,30,30],"right_children":[2,4,6,8,10,12,14,16,18,20,22,24,26,28,30,32,34,36,38,40,42,44,46,48,50,52,54,56,58,60,62,-1,-1,-1,-1,-1,-1,-1,-1,-1,-1,-1,-1,-1,-1,-1,-1,-1,-1,-1,-1,-1,-1,-1,-1,-1,-1,-1,-1,-1,-1,-1,-1],"split_conditions":[3E1,1.5E1,1.72E2,5E0,6.490522E7,4.740741E0,3.5338288E6,2E0,4.5789475E0,1.1E1,9.878049E-1,3.8333333E0,5.909091E0,6.3809524E0,4E0,2.0169161E-2,3.2E0,9E0,6.857143E0,2.0169161E-2,2E1,2.0169161E-2,3.25E0,2.5E0,5.7E1,2.0169161E-2,2.0169161E-2,5.35E0,8.5E0,3.375E0,1.3297789E7,-5.2558444E-3,4.289877E-3,-5.3504645E-3,-5.015449E-3,-3.2083124E-3,-2.7901568E-3,-2.589744E-3,-3.1044325E-3,3.9183008E-4,2.044797E-3,-2.330177E-2,4.069337E-3,-4.8265271E-4,8.877987E-3,-1.4974616E-2,2.8533116E-4,-4.4111754E-3,1.9152405E-3,3.2366829E-3,4.4128764E-3,5.096582E-3,8.803829E-3,3.2324016E-3,5.7115885E-3,6.9246613E-3,8.368197E-3,3.9691054E-3,1.085732E-2,-2.272807E-4,3.3468876E-3,6.1275465E-3,-2.5984084E-3],"split_indices":[0,0,0,0,6,2,6,0,2,7,4,2,2,2,2,4,2,0,2,4,0,4,2,2,0,4,4,2,2,2,6,0,0,0,0,0,0,0,0,0,0,0,0,0,0,0,0,0,0,0,0,0,0,0,0,0,0,0,0,0,0,0,0],"split_type":[0,0,0,0,0,0,0,0,0,0,0,0,0,0,0,0,0,0,0,0,0,0,0,0,0,0,0,0,0,0,0,0,0,0,0,0,0,0,0,0,0,0,0,0,0,0,0,0,0,0,0,0,0,0,0,0,0,0,0,0,0,0,0],"sum_hessian":[8E5,5.30714E5,2.69286E5,3.82539E5,1.48175E5,1.91136E5,7.815E4,1.45328E5,2.37211E5,1.43577E5,4.598E3,6.2755E4,1.28381E5,2.0423E4,5.7727E4,7.3684E4,7.1644E4,1.07305E5,1.29906E5,1.4357E5,7E0,4.566E3,3.2E1,5.311E3,5.7444E4,1.04969E5,2.3412E4,1.9056E4,1.367E3,1.335E3,5.6392E4,7.3679E4,5E0,7.429E3,6.4215E4,5.5624E4,5.1681E4,1.13451E5,1.6455E4,1.42351E5,1.219E3,6E0,1E0,4.549E3,1.7E1,1.7E1,1.5E1,2.46E2,5.065E3,2.6865E4,3.0579E4,1.01738E5,3.231E3,1.8564E4,4.848E3,1.2068E4,6.988E3,1.155E3,2.12E2,3.42E2,9.93E2,5.6156E4,2.36E2],"tree_param":{"num_deleted":"0","num_feature":"9","num_nodes":"63","size_leaf_vector":"1"}},{"base_weights":[1.1166472E-6,-2.3076816E-2,4.5483466E-2,-3.332863E-2,3.3900323E-3,5.1189475E-2,3.5284728E-2,-4.638764E-2,-2.5327828E-2,5.060426E-3,2.0015223E-3,4.7170244E-2,6.0161375E-2,3.6128324E-2,1.0977689E-2,-4.7158897E-2,-4.5245785E-2,-2.3158139E-2,-2.6608203E-2,4.785646E-3,2.9033542E-2,2.0201025E-3,-2.1304475E-2,3.1160317E-2,4.8583955E-2,5.9704218E-2,1.3375013E-1,3.2756135E-2,4.480816E-2,2.0563625E-2,-7.45378E-2,-1.3852204E-2,-4.7153085E-3,-4.6294834E-3,-4.423353E-3,-2.1903515E-3,-2.9941106E-3,-2.74308E-3,-2.1908374E-3,-1.6041893E-4,5.481105E-4,1.0846964E-2,1.3573278E-3,9.5042575E-5,5.523618E-4,3.9474885E-3,2.1837174E-3,3.3710045E-3,5.006285E-3,6.0996343E-3,3.1528026E-3,1.4666463E-2,7.9040965E-3,3.1945135E-3,6.169833E-3,5.7344474E-3,3.4424912E-3,6.4712594E-4,3.569378E-3,-2.520527E-2,-3.2881927E-3],"categories":[],"categories_nodes":[],"categories_segments":[],"categories_sizes":[],"default_left":[0,0,0,0,0,0,0,0,0,0,0,0,0,0,0,0,0,0,0,0,0,0,0,0,0,0,0,0,0,0,0,0,0,0,0,0,0,0,0,0,0,0,0,0,0,0,0,0,0,0,0,0,0,0,0,0,0,0,0,0,0],"id":19,"left_children":[1,3,5,7,9,11,13,15,17,19,21,23,25,27,29,31,33,35,37,39,41,43,-1,45,47,49,51,53,55,57,59,-1,-1,-1,-1,-1,-1,-1,-1,-1,-1,-1,-1,-1,-1,-1,-1,-1,-1,-1,-1,-1,-1,-1,-1,-1,-1,-1,-1,-1,-1],"loss_changes":[8.3971295E2,1.440007E2,1.5669128E1,3.996762E1,3.436631E-1,6.223816E0,1.9806824E0,1.2585449E-1,6.58371E-1,4.4292462E-1,3.2373822E-1,2.6976929E0,1.7891083E0,2.7315292E0,2.6591492E0,3.9520264E-2,6.0195923E-2,7.4858093E-1,5.7611084E-1,2.9552162E-1,9.3434227E-1,3.0321914E-1,0E0,7.4943256E-1,2.4086914E0,1.9309692E0,2.2086E-1,1.5765381E0,3.3983955E0,6.215174E-1,2.4097261E0,0E0,0E0,0E0,0E0,0E0,0E0,0E0,0E0,0E0,0E0,0E0,0E0,0E0,0E0,0E0,0E0,0E0,0E0,0E0,0E0,0E0,0E0,0E0,0E0,0E0,0E0,0E0,0E0,0E0,0E0],"parents":[2147483647,0,0,1,1,2,2,3,3,4,4,5,5,6,6,7,7,8,8,9,9,10,10,11,11,12,12,13,13,14,14,15,15,16,16,17,17,18,18,19,19,20,20,21,21,23,23,24,24,25,25,26,26,27,27,28,28,29,29,30,30],"right_children":[2,4,6,8,10,12,14,16,18,20,22,24,26,28,30,32,34,36,38,40,42,44,-1,46,48,50,52,54,56,58,60,-1,-1,-1,-1,-1,-1,-1,-1,-1,-1,-1,-1,-1,-1,-1,-1,-1,-1,-1,-1,-1,-1,-1,-1,-1,-1,-1,-1,-1,-1],"split_conditions":[3E1,1.5E1,1.3472905E7,5E0,3.4603644E7,2.22E2,6.625E0,3E0,6.851956E7,2.0169161E-2,1.1E1,6.1E1,1E0,5.25E0,7.4E1,2.826694E6,4.2727275E0,6.769231E0,5.564516E0,1.7E1,9.878049E-1,5.2352943E0,-2.1304475E-2,5.2E1,4.4324327E0,6.3333335E0,7.9015917E-1,2.0169161E-2,5.4025974E0,7.142857E0,1.3825963E7,-1.3852204E-2,-4.7153085E-3,-4.6294834E-3,-4.423353E-3,-2.1903515E-3,-2.9941106E-3,-2.74308E-3,-2.1908374E-3,-1.6041893E-4,5.481105E-4,1.0846964E-2,1.3573278E-3,9.5042575E-5,5.523618E-4,3.9474885E-3,2.1837174E-3,3.3710045E-3,5.006285E-3,6.0996343E-3,3.1528026E-3,1.4666463E-2,7.9040965E-3,3.1945135E-3,6.169833E-3,5.7344474E-3,3.4424912E-3,6.4712594E-4,3.569378E-3,-2.520527E-2,-3.2881927E-3],"split_indices":[0,0,6,0,6,0,2,0,6,4,7,0,7,2,0,6,2,2,2,0,4,2,0,0,2,2,4,4,2,2,6,0,0,0,0,0,0,0,0,0,0,0,0,0,0,0,0,0,0,0,0,0,0,0,0,0,0,0,0,0,0],"split_type":[0,0,0,0,0,0,0,0,0,0,0,0,0,0,0,0,0,0,0,0,0,0,0,0,0,0,0,0,0,0,0,0,0,0,0,0,0,0,0,0,0,0,0,0,0,0,0,0,0,0,0,0,0,0,0,0,0,0,0,0,0],"sum_hessian":[8E5,5.30714E5,2.69286E5,3.82539E5,1.48175E5,1.72674E5,9.6612E4,1.45328E5,2.37211E5,6.7259E4,8.0916E4,1.19256E5,5.3418E4,9.3371E4,3.241E3,8.6716E4,5.8612E4,8.804E4,1.49171E5,6.6498E4,7.61E2,8.091E4,6E0,9.678E3,1.09578E5,5.309E4,3.28E2,6.7249E4,2.6122E4,2.915E3,3.26E2,4E0,8.6712E4,2.8761E4,2.9851E4,7.4301E4,1.3739E4,1.26947E5,2.2224E4,6.527E3,5.9971E4,1.23E2,6.38E2,6.1986E4,1.8924E4,5.114E3,4.564E3,9.912E3,9.9666E4,5.0761E4,2.329E3,2.64E2,6.4E1,6.5418E4,1.831E3,1.1832E4,1.429E4,1.51E3,1.405E3,6.1E1,2.65E2],"tree_param":{"num_deleted":"0","num_feature":"9","num_nodes":"61","size_leaf_vector":"1"}},{"base_weights":[9.9458E-7,-2.1036556E-2,4.0422767E-2,-2.9995864E-2,2.826886E-3,4.6068046E-2,3.0781234E-2,-4.1749068E-2,-2.2795087E-2,1.7988916E-3,5.0288374E-3,5.3799585E-2,4.2186145E-2,2.3477977E-2,3.4076303E-2,-4.244322E-2,-4.0721364E-2,-2.6197243E-2,-2.2080543E-2,-2.9497405E-3,2.2170087E-3,7.713783E-3,-1.1073016E-3,4.687879E-2,5.8595166E-2,4.10082E-2,5.8995184E-2,-1.3113388E-1,2.3688938E-2,3.513026E-2,2.1938693E-3,-1.2744027E-2,-4.243783E-3,-4.1580265E-3,-3.942654E-3,-5.68718E-3,-2.5891082E-3,-2.2142988E-3,9.4657874E-4,-1.9138043E-4,-7.454075E-3,2.3544727E-4,-1.5787373E-3,7.59101E-4,1.3327554E-2,-8.320398E-4,7.641965E-4,3.8505306E-3,5.6982334E-3,6.2058545E-3,3.9451215E-3,4.2300425E-3,1.8143287E-3,1.315773E-2,3.48806E-3,-4.86805E-2,-2.266785E-3,9.884969E-4,2.6002321E-3,3.546628E-3,-8.036064E-3,1.4099468E-3,-6.7171142E-3],"categories":[],"categories_nodes":[],"categories_segments":[],"categories_sizes":[],"default_left":[0,0,0,0,0,0,0,0,0,0,0,0,0,0,0,0,0,0,0,0,0,0,0,0,0,0,0,0,0,0,0,0,0,0,0,0,0,0,0,0,0,0,0,0,0,0,0,0,0,0,0,0,0,0,0,0,0,0,0,0,0,0,0],"id":20,"left_children":[1,3,5,7,9,11,13,15,17,19,21,23,25,27,29,31,33,35,37,39,41,43,45,47,49,51,53,55,57,59,61,-1,-1,-1,-1,-1,-1,-1,-1,-1,-1,-1,-1,-1,-1,-1,-1,-1,-1,-1,-1,-1,-1,-1,-1,-1,-1,-1,-1,-1,-1,-1,-1],"loss_changes":[6.8030176E2,1.124933E2,1.4903503E1,3.2374268E1,3.250928E-1,5.181366E0,2.432869E0,1.0194397E-1,5.760727E-1,1.9441131E-1,7.530899E-1,1.9131622E0,2.2743225E0,1.0287552E0,2.3415604E0,3.4332275E-2,6.354523E-2,3.8515472E-1,3.8640594E-1,5.8753073E-1,2.2275832E-1,4.891578E-1,8.7816644E-1,1.9972038E0,2.2581406E0,3.1742706E0,1.3171574E1,1.6478293E0,1.0025616E0,2.6206284E0,1.8433783E0,0E0,0E0,0E0,0E0,0E0,0E0,0E0,0E0,0E0,0E0,0E0,0E0,0E0,0E0,0E0,0E0,0E0,0E0,0E0,0E0,0E0,0E0,0E0,0E0,0E0,0E0,0E0,0E0,0E0,0E0,0E0,0E0],"parents":[2147483647,0,0,1,1,2,2,3,3,4,4,5,5,6,6,7,7,8,8,9,9,10,10,11,11,12,12,13,13,14,14,15,15,16,16,17,17,18,18,19,19,20,20,21,21,22,22,23,23,24,24,25,25,26,26,27,27,28,28,29,29,30,30],"right_children":[2,4,6,8,10,12,14,16,18,20,22,24,26,28,30,32,34,36,38,40,42,44,46,48,50,52,54,56,58,60,62,-1,-1,-1,-1,-1,-1,-1,-1,-1,-1,-1,-1,-1,-1,-1,-1,-1,-1,-1,-1,-1,-1,-1,-1,-1,-1,-1,-1,-1,-1,-1,-1],"split_conditions":[2.9E1,1.5E1,1.3472905E7,5E0,5.263158E0,5.215993E6,3.8E1,3E0,3.857143E0,3.75E0,6.1666665E0,2.37E2,2.0169161E-2,2.5E0,6.625E0,2.826694E6,2.0803262E8,2E0,2.0169161E-2,6.25E-1,7.666287E7,9.946524E-1,1.9E1,5.448363E0,5.693548E0,6.5E0,9.622642E-1,2.5293498E7,3E1,9E0,7.4E1,-1.2744027E-2,-4.243783E-3,-4.1580265E-3,-3.942654E-3,-5.68718E-3,-2.5891082E-3,-2.2142988E-3,9.4657874E-4,-1.9138043E-4,-7.454075E-3,2.3544727E-4,-1.5787373E-3,7.59101E-4,1.3327554E-2,-8.320398E-4,7.641965E-4,3.8505306E-3,5.6982334E-3,6.2058545E-3,3.9451215E-3,4.2300425E-3,1.8143287E-3,1.315773E-2,3.48806E-3,-4.86805E-2,-2.266785E-3,9.884969E-4,2.6002321E-3,3.546628E-3,-8.036064E-3,1.4099468E-3,-6.7171142E-3],"split_indices":[0,0,6,0,2,6,0,0,2,2,2,0,4,2,2,6,6,2,4,4,6,4,0,2,2,2,4,6,0,7,0,0,0,0,0,0,0,0,0,0,0,0,0,0,0,0,0,0,0,0,0,0,0,0,0,0,0,0,0,0,0,0,0],"split_type":[0,0,0,0,0,0,0,0,0,0,0,0,0,0,0,0,0,0,0,0,0,0,0,0,0,0,0,0,0,0,0,0,0,0,0,0,0,0,0,0,0,0,0,0,0,0,0,0,0,0,0,0,0,0,0,0,0,0,0,0,0,0,0],"sum_hessian":[8E5,5.2616E5,2.7384E5,3.82539E5,1.43621E5,1.72711E5,1.01129E5,1.45328E5,2.37211E5,9.7912E4,4.5709E4,5.7726E4,1.14985E5,3.1444E4,6.9685E4,8.6716E4,5.8612E4,4.1167E4,1.96044E5,7.923E3,8.9989E4,3.1796E4,1.3913E4,2.3632E4,3.4094E4,1.07458E5,7.527E3,4.2E1,3.1402E4,6.7455E4,2.23E3,4E0,8.6712E4,3.5219E4,2.3393E4,4.05E2,4.0762E4,1.95657E5,3.87E2,7.811E3,1.12E2,8.9308E4,6.81E2,3.1766E4,3E1,7.626E3,6.287E3,1.2925E4,1.0707E4,2.8869E4,5.225E3,1.01709E5,5.749E3,1.876E3,5.651E3,9E0,3.3E1,4.508E3,2.6894E4,6.726E4,1.95E2,1.904E3,3.26E2],"tree_param":{"num_deleted":"0","num_feature":"9","num_nodes":"63","size_leaf_vector":"1"}},{"base_weights":[8.41138E-7,-1.8932955E-2,3.6380436E-2,-2.699637E-2,2.5442408E-3,4.1461505E-2,2.7702522E-2,-3.7574332E-2,-2.051562E-2,1.6189197E-3,4.5262673E-3,3.803088E-2,4.8563708E-2,3.0253643E-2,1.9812357E-2,-3.650992E-2,-3.815678E-2,-1.792022E-2,-2.1406125E-2,3.0388734E-3,4.2729947E-4,6.942854E-3,-9.965678E-4,2.4624348E-2,3.9353836E-2,9.843277E-3,4.930292E-2,2.05084E-2,3.284729E-2,2.0454155E-2,-7.463913E-2,-3.7234612E-3,-3.0094038E-3,-3.838783E-3,-3.753865E-3,-1.5826029E-3,-2.6084767E-3,-2.2054622E-3,-1.6753726E-3,8.3857373E-4,2.3947438E-4,5.2669722E-5,-2.0558017E-3,6.831939E-4,1.203779E-2,-7.488456E-4,6.877896E-4,-5.7311123E-3,2.610473E-3,2.4973073E-3,4.068462E-3,3.8657773E-3,-1.3395339E-4,4.78374E-3,6.8529234E-3,2.17632E-3,-1.1052024E-3,5.354316E-3,2.9806232E-3,2.2621346E-3,-1.1186561E-5,-9.664577E-3,1.3908895E-2],"categories":[],"categories_nodes":[],"categories_segments":[],"categories_sizes":[],"default_left":[0,0,0,0,0,0,0,0,0,0,0,0,0,0,0,0,0,0,0,0,0,0,0,0,0,0,0,0,0,0,0,0,0,0,0,0,0,0,0,0,0,0,0,0,0,0,0,0,0,0,0,0,0,0,0,0,0,0,0,0,0,0,0],"id":21,"left_children":[1,3,5,7,9,11,13,15,17,19,21,23,25,27,29,31,33,35,37,39,41,43,45,47,49,51,53,55,57,59,61,-1,-1,-1,-1,-1,-1,-1,-1,-1,-1,-1,-1,-1,-1,-1,-1,-1,-1,-1,-1,-1,-1,-1,-1,-1,-1,-1,-1,-1,-1,-1,-1],"loss_changes":[5.5104443E2,9.112038E1,1.2073334E1,2.6223541E1,2.6339692E-1,4.2062683E0,2.035019E0,8.868408E-2,5.478668E-1,1.6567197E-1,6.1007124E-1,2.0646515E0,1.6095428E0,1.9308777E0,1.4995384E0,2.3797607E-1,1.1978149E-2,1.0358028E0,5.324707E-1,1.5384734E-1,1.1105959E-1,3.9923537E-1,7.113371E-1,1.2706141E0,2.0276031E0,3.4000134E-1,1.5519562E0,6.364856E-1,3.7969208E0,1.0940294E0,7.9891634E-1,0E0,0E0,0E0,0E0,0E0,0E0,0E0,0E0,0E0,0E0,0E0,0E0,0E0,0E0,0E0,0E0,0E0,0E0,0E0,0E0,0E0,0E0,0E0,0E0,0E0,0E0,0E0,0E0,0E0,0E0,0E0,0E0],"parents":[2147483647,0,0,1,1,2,2,3,3,4,4,5,5,6,6,7,7,8,8,9,9,10,10,11,11,12,12,13,13,14,14,15,15,16,16,17,17,18,18,19,19,20,20,21,21,22,22,23,23,24,24,25,25,26,26,27,27,28,28,29,29,30,30],"right_children":[2,4,6,8,10,12,14,16,18,20,22,24,26,28,30,32,34,36,38,40,42,44,46,48,50,52,54,56,58,60,62,-1,-1,-1,-1,-1,-1,-1,-1,-1,-1,-1,-1,-1,-1,-1,-1,-1,-1,-1,-1,-1,-1,-1,-1,-1,-1,-1,-1,-1,-1,-1,-1],"split_conditions":[2.9E1,1.5E1,1.3472905E7,5E0,5.263158E0,2.17E2,2.4882846E7,2.4301011E8,5.8962452E7,3.722682E7,6.1666665E0,4.4324327E0,4E0,1.5365531E7,8E0,2.2579963E8,2E0,6.769231E0,5.8E0,1.8E1,6.25E-1,9.946524E-1,1.9E1,3.375E0,6.1E1,2.8E2,2.0169161E-2,8.819444E-1,1.5422696E7,3.85599E7,9.250105E-1,-3.7234612E-3,-3.0094038E-3,-3.838783E-3,-3.753865E-3,-1.5826029E-3,-2.6084767E-3,-2.2054622E-3,-1.6753726E-3,8.3857373E-4,2.3947438E-4,5.2669722E-5,-2.0558017E-3,6.831939E-4,1.203779E-2,-7.488456E-4,6.877896E-4,-5.7311123E-3,2.610473E-3,2.4973073E-3,4.068462E-3,3.8657773E-3,-1.3395339E-4,4.78374E-3,6.8529234E-3,2.17632E-3,-1.1052024E-3,5.354316E-3,2.9806232E-3,2.2621346E-3,-1.1186561E-5,-9.664577E-3,1.3908895E-2],"split_indices":[0,0,6,0,2,0,6,6,6,6,2,2,2,6,7,6,0,2,2,0,4,4,0,2,0,0,4,4,6,6,4,0,0,0,0,0,0,0,0,0,0,0,0,0,0,0,0,0,0,0,0,0,0,0,0,0,0,0,0,0,0,0,0],"split_type":[0,0,0,0,0,0,0,0,0,0,0,0,0,0,0,0,0,0,0,0,0,0,0,0,0,0,0,0,0,0,0,0,0,0,0,0,0,0,0,0,0,0,0,0,0,0,0,0,0,0,0,0,0,0,0,0,0,0,0,0,0,0,0],"sum_hessian":[8E5,5.2616E5,2.7384E5,3.82539E5,1.43621E5,1.72711E5,1.01129E5,1.45328E5,2.37211E5,9.7912E4,4.5709E4,1.16462E5,5.6249E4,7.6418E4,2.4711E4,5.1421E4,9.3907E4,6.0603E4,1.76608E5,4.4675E4,5.3237E4,3.1796E4,1.3913E4,1.0462E4,1.06E5,1.054E3,5.5195E4,1.6065E4,6.0353E4,2.4545E4,1.66E2,4.6198E4,5.223E3,6.8312E4,2.5595E4,4.8234E4,1.2369E4,1.54999E5,2.1609E4,4.802E3,3.9873E4,5.2987E4,2.5E2,3.1766E4,3E1,7.626E3,6.287E3,1.85E2,1.0277E4,8.98E3,9.702E4,2.94E2,7.6E2,5.1289E4,3.906E3,1.5451E4,6.14E2,7.73E3,5.2623E4,2.2205E4,2.34E3,1.51E2,1.5E1],"tree_param":{"num_deleted":"0","num_feature":"9","num_nodes":"63","size_leaf_vector":"1"}},{"base_weights":[7.898733E-7,-1.6835136E-2,3.3181295E-2,-2.429679E-2,2.4284308E-3,4.2729467E-2,2.9834896E-2,-3.3816997E-2,-1.8464092E-2,6.76308E-3,2.054946E-3,4.0816203E-2,5.562989E-2,2.4956819E-2,3.3422116E-2,-3.2859057E-2,-3.4341183E-2,-3.8272448E-2,-1.8368023E-2,5.8204327E-3,3.917603E-2,2.3606324E-3,-3.7715542E-3,3.9458293E-2,5.581232E-2,-4.9916035E-3,5.7780113E-2,2.1669269E-2,3.0904487E-2,3.4539863E-2,1.4385069E-2,-3.3511228E-3,-2.7085214E-3,-3.45491E-3,-3.378493E-3,-2.574365E-3,-5.3524626E-3,-1.6064203E-3,-1.9124562E-3,1.0036384E-2,5.7453813E-4,3.0588752E-3,1.8727692E-2,1.4566851E-4,6.5762247E-4,-8.436873E-4,9.0395956E-4,4.101962E-3,1.8948732E-3,9.879931E-3,4.1784598E-3,-7.8343815E-4,1.4034822E-2,5.59719E-3,1.04884105E-2,2.24289E-3,-2.5281971E-3,4.45356E-3,2.2234258E-3,3.4206023E-3,1.1411253E-2,1.9328526E-3,-2.5841843E-3],"categories":[],"categories_nodes":[],"categories_segments":[],"categories_sizes":[],"default_left":[0,0,0,0,0,0,0,0,0,0,0,0,0,0,0,0,0,0,0,0,0,0,0,0,0,0,0,0,0,0,0,0,0,0,0,0,0,0,0,0,0,0,0,0,0,0,0,0,0,0,0,0,0,0,0,0,0,0,0,0,0,0,0],"id":22,"left_children":[1,3,5,7,9,11,13,15,17,19,21,23,25,27,29,31,33,35,37,39,41,43,45,47,49,51,53,55,57,59,61,-1,-1,-1,-1,-1,-1,-1,-1,-1,-1,-1,-1,-1,-1,-1,-1,-1,-1,-1,-1,-1,-1,-1,-1,-1,-1,-1,-1,-1,-1,-1,-1],"loss_changes":[4.469007E2,7.628403E1,8.602997E0,2.1241241E1,2.3987198E-1,1.7225876E0,3.4885101E0,7.185364E-2,4.5070648E-1,3.5890347E-1,2.4298936E-1,1.2371292E0,1.1764355E0,1.651638E0,2.4444733E0,1.9272232E-1,9.689331E-3,2.1723056E-1,4.1114044E-1,8.047655E-2,4.1650355E-1,4.939413E-1,4.0655902E-1,1.7863998E0,3.0416718E0,1.2918189E-1,7.3633385E-1,1.9416676E0,3.5538902E0,2.8791504E0,1.2680327E0,0E0,0E0,0E0,0E0,0E0,0E0,0E0,0E0,0E0,0E0,0E0,0E0,0E0,0E0,0E0,0E0,0E0,0E0,0E0,0E0,0E0,0E0,0E0,0E0,0E0,0E0,0E0,0E0,0E0,0E0,0E0,0E0],"parents":[2147483647,0,0,1,1,2,2,3,3,4,4,5,5,6,6,7,7,8,8,9,9,10,10,11,11,12,12,13,13,14,14,15,15,16,16,17,17,18,18,19,19,20,20,21,21,22,22,23,23,24,24,25,25,26,26,27,27,28,28,29,29,30,30],"right_children":[2,4,6,8,10,12,14,16,18,20,22,24,26,28,30,32,34,36,38,40,42,44,46,48,50,52,54,56,58,60,62,-1,-1,-1,-1,-1,-1,-1,-1,-1,-1,-1,-1,-1,-1,-1,-1,-1,-1,-1,-1,-1,-1,-1,-1,-1,-1,-1,-1,-1,-1,-1,-1],"split_conditions":[3E1,1.5E1,5.8568835E6,5E0,2.2723708E7,3.89E2,6.1E1,2.4301011E8,2.5E0,2.0169161E-2,6.5555553E0,2.0169161E-2,3.9722223E0,5.25E0,6.5E0,2.2579963E8,2E0,2.3256666E8,5.8128856E7,4.7742395E6,2.2278744E7,5.448363E0,2E1,6.3809524E0,9.986468E-1,5.690575E6,5.5238094E0,7.779503E-1,5.4025974E0,1E0,1.3171933E7,-3.3511228E-3,-2.7085214E-3,-3.45491E-3,-3.378493E-3,-2.574365E-3,-5.3524626E-3,-1.6064203E-3,-1.9124562E-3,1.0036384E-2,5.7453813E-4,3.0588752E-3,1.8727692E-2,1.4566851E-4,6.5762247E-4,-8.436873E-4,9.0395956E-4,4.101962E-3,1.8948732E-3,9.879931E-3,4.1784598E-3,-7.8343815E-4,1.4034822E-2,5.59719E-3,1.04884105E-2,2.24289E-3,-2.5281971E-3,4.45356E-3,2.2234258E-3,3.4206023E-3,1.1411253E-2,1.9328526E-3,-2.5841843E-3],"split_indices":[0,0,6,0,6,0,0,6,2,4,2,4,2,2,2,6,0,6,6,6,6,2,0,2,4,6,2,4,2,7,6,0,0,0,0,0,0,0,0,0,0,0,0,0,0,0,0,0,0,0,0,0,0,0,0,0,0,0,0,0,0,0,0],"split_type":[0,0,0,0,0,0,0,0,0,0,0,0,0,0,0,0,0,0,0,0,0,0,0,0,0,0,0,0,0,0,0,0,0,0,0,0,0,0,0,0,0,0,0,0,0,0,0,0,0,0,0,0,0,0,0,0,0,0,0,0,0,0,0],"sum_hessian":[8E5,5.30714E5,2.69286E5,3.82539E5,1.48175E5,6.9882E4,1.99404E5,1.45328E5,2.37211E5,1.1753E4,1.36422E5,6.086E4,9.022E3,8.4502E4,1.14902E5,5.1421E4,9.3907E4,1.143E3,2.36068E5,1.1422E4,3.31E2,1.29622E5,6.8E3,5.581E4,5.05E3,3.09E2,8.713E3,5.4424E4,3.0078E4,1.08529E5,6.373E3,4.6198E4,5.223E3,6.8312E4,2.5595E4,6.29E2,5.14E2,5.8363E4,1.77705E5,8E0,1.1414E4,3.14E2,1.7E1,1.06736E5,2.2886E4,4.985E3,1.815E3,5.1861E4,3.949E3,1.241E3,3.809E3,3.04E2,5E0,8.393E3,3.2E2,5.3558E4,8.66E2,1.1692E4,1.8386E4,1.08077E5,4.52E2,5.676E3,6.97E2],"tree_param":{"num_deleted":"0","num_feature":"9","num_nodes":"63","size_leaf_vector":"1"}},{"base_weights":[8.1339124E-7,-1.5151605E-2,2.9863436E-2,-2.1867175E-2,2.1858092E-3,3.6503244E-2,2.5926005E-2,-3.0435385E-2,-1.6617728E-2,-2.9676845E-3,2.4851197E-3,-2.9892817E-2,3.681231E-2,2.2147624E-2,3.108339E-2,4.1709207E-2,-3.0441133E-2,-1.7919088E-2,-1.5252294E-2,-1.9079E-3,-7.433127E-2,2.333246E-3,2.0761766E-2,5.5192347E-4,-4.3143623E-2,3.8428295E-2,2.471545E-2,2.1237258E-2,5.0439518E-2,3.5560522E-2,1.9788422E-2,-9.216587E-3,2.475675E-2,-3.107672E-3,-2.9787067E-3,-3.4452125E-3,-1.7761728E-3,-1.4189956E-3,-1.8873456E-3,-1.995582E-4,1.38975335E-2,-1.1908022E-2,-2.9830958E-3,2.508696E-4,-5.574468E-4,9.739461E-3,4.8849994E-4,-2.9617227E-3,3.2006153E-3,-5.5397833E-3,5.5985677E-4,3.7366915E-3,5.864334E-3,1.8050856E-3,4.4814604E-3,-1.6062943E-3,2.1755511E-3,1.5518742E-2,6.318685E-5,3.7958403E-3,2.2704836E-3,1.9115125E-3,7.869342E-3],"categories":[],"categories_nodes":[],"categories_segments":[],"categories_sizes":[],"default_left":[0,0,0,0,0,0,0,0,0,0,0,0,0,0,0,0,0,0,0,0,0,0,0,0,0,0,0,0,0,0,0,0,0,0,0,0,0,0,0,0,0,0,0,0,0,0,0,0,0,0,0,0,0,0,0,0,0,0,0,0,0,0,0],"id":23,"left_children":[1,3,5,7,9,11,13,15,17,19,21,23,25,27,29,31,33,35,37,39,41,43,45,47,49,51,53,55,57,59,61,-1,-1,-1,-1,-1,-1,-1,-1,-1,-1,-1,-1,-1,-1,-1,-1,-1,-1,-1,-1,-1,-1,-1,-1,-1,-1,-1,-1,-1,-1,-1,-1],"loss_changes":[3.6199365E2,6.1791504E1,7.039261E0,1.7205536E1,2.2856808E-1,2.0581055E0,3.2934647E0,6.1523438E-2,4.212265E-1,6.1503285E-1,3.8867474E-1,1.8761283E-1,1.9495239E0,2.511963E0,3.6138153E0,3.535288E-1,5.949402E-2,3.1536102E-1,4.4506073E-1,9.929839E-2,2.3341745E-1,1.9271106E-1,1.403575E0,1.3569845E-1,1.9383442E-1,1.8862915E0,1.5746083E0,1.8277206E0,1.586555E1,1.5770187E0,8.03288E-1,0E0,0E0,0E0,0E0,0E0,0E0,0E0,0E0,0E0,0E0,0E0,0E0,0E0,0E0,0E0,0E0,0E0,0E0,0E0,0E0,0E0,0E0,0E0,0E0,0E0,0E0,0E0,0E0,0E0,0E0,0E0,0E0],"parents":[2147483647,0,0,1,1,2,2,3,3,4,4,5,5,6,6,7,7,8,8,9,9,10,10,11,11,12,12,13,13,14,14,15,15,16,16,17,17,18,18,19,19,20,20,21,21,22,22,23,23,24,24,25,25,26,26,27,27,28,28,29,29,30,30],"right_children":[2,4,6,8,10,12,14,16,18,20,22,24,26,28,30,32,34,36,38,40,42,44,46,48,50,52,54,56,58,60,62,-1,-1,-1,-1,-1,-1,-1,-1,-1,-1,-1,-1,-1,-1,-1,-1,-1,-1,-1,-1,-1,-1,-1,-1,-1,-1,-1,-1,-1,-1,-1,-1],"split_conditions":[3E1,1.5E1,7.958778E6,5E0,3.75E0,3.7142856E0,5.1904764E0,4.241774E6,4.7192984E0,6.25E-1,2.0169161E-2,3.9628612E6,6.1666665E0,2.0169161E-2,5.75E0,3.2212665E6,2E0,2.5E0,1.3E1,2.0169161E-2,3.4285715E0,6.490522E7,9.705635E-1,3.2212665E6,3.65E0,3.5812672E-2,8.166667E0,3.375E0,7.66825E-1,1.8083068E7,4E0,-9.216587E-3,2.475675E-2,-3.107672E-3,-2.9787067E-3,-3.4452125E-3,-1.7761728E-3,-1.4189956E-3,-1.8873456E-3,-1.995582E-4,1.38975335E-2,-1.1908022E-2,-2.9830958E-3,2.508696E-4,-5.574468E-4,9.739461E-3,4.8849994E-4,-2.9617227E-3,3.2006153E-3,-5.5397833E-3,5.5985677E-4,3.7366915E-3,5.864334E-3,1.8050856E-3,4.4814604E-3,-1.6062943E-3,2.1755511E-3,1.5518742E-2,6.318685E-5,3.7958403E-3,2.2704836E-3,1.9115125E-3,7.869342E-3],"split_indices":[0,0,6,0,2,2,2,6,2,4,4,6,2,4,2,6,0,2,0,4,2,6,4,6,2,4,2,2,4,6,7,0,0,0,0,0,0,0,0,0,0,0,0,0,0,0,0,0,0,0,0,0,0,0,0,0,0,0,0,0,0,0,0],"split_type":[0,0,0,0,0,0,0,0,0,0,0,0,0,0,0,0,0,0,0,0,0,0,0,0,0,0,0,0,0,0,0,0,0,0,0,0,0,0,0,0,0,0,0,0,0,0,0,0,0,0,0,0,0,0,0,0,0,0,0,0,0,0,0],"sum_hessian":[8E5,5.30714E5,2.69286E5,3.82539E5,1.48175E5,1.0024E5,1.69046E5,1.45328E5,2.37211E5,8.133E3,1.40042E5,4.64E2,9.9776E4,9.757E4,7.1476E4,1.1E1,1.45317E5,1.21449E5,1.15762E5,8.015E3,1.18E2,1.38889E5,1.153E3,1.41E2,3.23E2,8.8016E4,1.176E4,9.453E4,3.04E3,5.1185E4,2.0291E4,7E0,4E0,7.3676E4,7.1641E4,1.143E3,1.20306E5,8.9508E4,2.6254E4,8.011E3,4E0,5.8E1,6E1,1.35875E5,3.014E3,1.97E2,9.56E2,7.2E1,6.9E1,2.58E2,6.5E1,8.3628E4,4.388E3,8.833E3,2.927E3,1.295E3,9.3235E4,9.79E2,2.061E3,4.3137E4,8.048E3,2.0063E4,2.28E2],"tree_param":{"num_deleted":"0","num_feature":"9","num_nodes":"63","size_leaf_vector":"1"}},{"base_weights":[7.9584385E-7,-1.3636428E-2,2.6877249E-2,-1.9680453E-2,1.9672813E-3,2.2977302E-2,3.2554623E-2,-2.739178E-2,-1.4955992E-2,1.9765976E-3,-1.7082538E-1,1.9074803E-2,2.780506E-2,4.6708647E-2,3.1275682E-2,3.88333E-2,-2.739706E-2,-1.434523E-2,-1.7673336E-2,2.434867E-3,-9.6133846E-4,-2.0299686E-2,2.7187527E-3,1.8350676E-2,4.5123897E-2,3.2025877E-2,1.4814708E-2,1.8617235E-2,5.0083555E-2,3.0120915E-2,4.4979326E-2,-8.410135E-3,2.2776209E-2,-2.659723E-3,-2.7834647E-3,-1.4363237E-3,8.029355E-3,-4.1409577E-3,-1.7455006E-3,2.4163698E-4,8.408844E-3,-3.871681E-4,4.0587175E-4,-1.0391807E-3,1.8985585E-3,1.4618074E-2,-5.910541E-4,2.0160114E-3,3.4309363E-3,1.0985642E-3,3.1956378E-3,-1.6017192E-3,3.5694148E-3,4.9429047E-3,1.2676205E-2,3.101085E-3,1.3132951E-3,8.446274E-3,3.1464656E-3],"categories":[],"categories_nodes":[],"categories_segments":[],"categories_sizes":[],"default_left":[0,0,0,0,0,0,0,0,0,0,0,0,0,0,0,0,0,0,0,0,0,0,0,0,0,0,0,0,0,0,0,0,0,0,0,0,0,0,0,0,0,0,0,0,0,0,0,0,0,0,0,0,0,0,0,0,0,0,0],"id":24,"left_children":[1,3,5,7,9,11,13,15,17,19,21,23,25,27,29,31,33,35,37,39,41,-1,-1,43,45,47,49,51,53,55,57,-1,-1,-1,-1,-1,-1,-1,-1,-1,-1,-1,-1,-1,-1,-1,-1,-1,-1,-1,-1,-1,-1,-1,-1,-1,-1,-1,-1],"loss_changes":[2.932169E2,5.005136E1,5.9616547E0,1.39362335E1,2.3886734E-1,3.0070496E0,1.9834976E0,5.1879883E-2,3.9343643E-1,1.9949204E-1,5.6481943E-2,1.6643867E0,3.9119682E0,8.6037827E-1,1.5901031E0,2.9786584E-1,5.0125122E-2,3.3124924E-1,2.2485352E-1,1.9338983E-1,2.921297E-1,0E0,0E0,1.5676632E0,1.2311527E1,1.4585495E0,1.1483555E0,5.77826E-1,4.007511E-1,1.4019012E0,4.166936E0,0E0,0E0,0E0,0E0,0E0,0E0,0E0,0E0,0E0,0E0,0E0,0E0,0E0,0E0,0E0,0E0,0E0,0E0,0E0,0E0,0E0,0E0,0E0,0E0,0E0,0E0,0E0,0E0],"parents":[2147483647,0,0,1,1,2,2,3,3,4,4,5,5,6,6,7,7,8,8,9,9,10,10,11,11,12,12,13,13,14,14,15,15,16,16,17,17,18,18,19,19,20,20,23,23,24,24,25,25,26,26,27,27,28,28,29,29,30,30],"right_children":[2,4,6,8,10,12,14,16,18,20,22,24,26,28,30,32,34,36,38,40,42,-1,-1,44,46,48,50,52,54,56,58,-1,-1,-1,-1,-1,-1,-1,-1,-1,-1,-1,-1,-1,-1,-1,-1,-1,-1,-1,-1,-1,-1,-1,-1,-1,-1,-1,-1],"split_conditions":[3E1,1.5E1,1.15E2,5E0,1.1E1,5.1904764E0,2.826694E6,4.241774E6,1.2063617E8,5.076965E7,2E1,2.0169161E-2,5.909091E0,4.617647E0,2.0169161E-2,3.2212665E6,2.4301011E8,3E0,2E0,9.9856323E-1,1.8E1,-2.0299686E-2,2.7187527E-3,3.5714285E0,7.66825E-1,4.3E1,2.0169161E-2,4.1E2,1.0666667E1,6.3809524E0,9.622642E-1,-8.410135E-3,2.2776209E-2,-2.659723E-3,-2.7834647E-3,-1.4363237E-3,8.029355E-3,-4.1409577E-3,-1.7455006E-3,2.4163698E-4,8.408844E-3,-3.871681E-4,4.0587175E-4,-1.0391807E-3,1.8985585E-3,1.4618074E-2,-5.910541E-4,2.0160114E-3,3.4309363E-3,1.0985642E-3,3.1956378E-3,-1.6017192E-3,3.5694148E-3,4.9429047E-3,1.2676205E-2,3.101085E-3,1.3132951E-3,8.446274E-3,3.1464656E-3],"split_indices":[0,0,0,0,7,2,6,6,6,6,0,4,2,2,4,6,6,7,2,4,0,0,0,2,4,0,4,0,2,2,4,0,0,0,0,0,0,0,0,0,0,0,0,0,0,0,0,0,0,0,0,0,0,0,0,0,0,0,0],"split_type":[0,0,0,0,0,0,0,0,0,0,0,0,0,0,0,0,0,0,0,0,0,0,0,0,0,0,0,0,0,0,0,0,0,0,0,0,0,0,0,0,0,0,0,0,0,0,0,0,0,0,0,0,0,0,0,0,0,0,0],"sum_hessian":[8E5,5.30714E5,2.69286E5,3.82539E5,1.48175E5,1.59634E5,1.09652E5,1.45328E5,2.37211E5,1.48168E5,7E0,8.8279E4,7.1355E4,9.084E3,1.00568E5,1.1E1,1.45317E5,1.93684E5,4.3527E4,1.28175E5,1.9993E4,6E0,1E0,8.5893E4,2.386E3,5.3855E4,1.75E4,9.75E2,8.109E3,9.2755E4,7.813E3,7E0,4E0,5.141E4,9.3907E4,1.93648E5,3.6E1,3.95E2,4.3132E4,1.28147E5,2.8E1,1.2656E4,7.337E3,1.856E3,8.4037E4,8E2,1.586E3,8.693E3,4.5162E4,1.4306E4,3.194E3,3.22E2,6.53E2,8.042E3,6.7E1,8.8137E4,4.618E3,1.991E3,5.822E3],"tree_param":{"num_deleted":"0","num_feature":"9","num_nodes":"59","size_leaf_vector":"1"}},{"base_weights":[7.849783E-7,-1.2430686E-2,2.3886746E-2,-1.7712383E-2,1.6373051E-3,1.7391486E-2,2.702289E-2,-2.4652543E-2,-1.3460389E-2,1.6460716E-3,-1.5594047E-1,1.6722934E-2,3.6054127E-2,-5.044589E-3,2.7467452E-2,1.6680911E-2,-2.465977E-2,-1.1330414E-2,-1.4155422E-2,6.970496E-3,1.4233491E-3,-1.8559715E-2,2.5828152E-3,9.371002E-3,1.836763E-2,1.6037254E-1,8.216174E-3,-8.879469E-3,3.519229E-2,3.637213E-2,2.590885E-2,-7.674248E-3,5.5139135E-3,-2.5110529E-3,-2.3992555E-3,-8.6375914E-4,-1.7326738E-3,-1.4692517E-3,-1.0042575E-3,6.746465E-4,1.3524808E-2,1.8140835E-4,-2.772086E-4,1.678174E-3,-1.0892444E-4,3.6776864E-3,1.6183965E-3,1.4592393E-2,1.9755676E-2,-3.1151543E-3,2.6511326E-3,-4.942123E-4,-6.587176E-3,1.1233511E-2,-5.801963E-6,5.0759423E-3,3.4603395E-3,2.6835736E-3,1.0237136E-3],"categories":[],"categories_nodes":[],"categories_segments":[],"categories_sizes":[],"default_left":[0,0,0,0,0,0,0,0,0,0,0,0,0,0,0,0,0,0,0,0,0,0,0,0,0,0,0,0,0,0,0,0,0,0,0,0,0,0,0,0,0,0,0,0,0,0,0,0,0,0,0,0,0,0,0,0,0,0,0],"id":25,"left_children":[1,3,5,7,9,11,13,15,17,19,21,23,25,27,29,31,33,35,37,39,41,-1,-1,43,45,47,49,51,53,55,57,-1,-1,-1,-1,-1,-1,-1,-1,-1,-1,-1,-1,-1,-1,-1,-1,-1,-1,-1,-1,-1,-1,-1,-1,-1,-1,-1,-1],"loss_changes":[2.3755069E2,3.90953E1,5.5776825E0,1.1288231E1,1.9865435E-1,1.1119652E0,2.6328125E0,4.3823242E-2,3.51017E-1,1.7029858E-1,4.791887E-2,1.0407772E0,1.0668236E1,3.9008337E-1,2.5270386E0,9.764685E-2,4.309845E-2,9.422884E-1,3.9492035E-1,1.6479173E-1,2.2598273E-1,0E0,0E0,1.2201538E0,2.8274078E0,2.7418613E-1,1.8158265E0,5.173615E-1,5.9825444E-1,6.8862915E-1,2.251503E0,0E0,0E0,0E0,0E0,0E0,0E0,0E0,0E0,0E0,0E0,0E0,0E0,0E0,0E0,0E0,0E0,0E0,0E0,0E0,0E0,0E0,0E0,0E0,0E0,0E0,0E0,0E0,0E0],"parents":[2147483647,0,0,1,1,2,2,3,3,4,4,5,5,6,6,7,7,8,8,9,9,10,10,11,11,12,12,13,13,14,14,15,15,16,16,17,17,18,18,19,19,20,20,23,23,24,24,25,25,26,26,27,27,28,28,29,29,30,30],"right_children":[2,4,6,8,10,12,14,16,18,20,22,24,26,28,30,32,34,36,38,40,42,-1,-1,44,46,48,50,52,54,56,58,-1,-1,-1,-1,-1,-1,-1,-1,-1,-1,-1,-1,-1,-1,-1,-1,-1,-1,-1,-1,-1,-1,-1,-1,-1,-1,-1,-1],"split_conditions":[2.9E1,1.5E1,6.1E1,5E0,1.1E1,2.0169161E-2,3.8333333E0,1.0719128E7,5.8128856E7,2.0548128E7,2E1,1.5365531E7,7.66825E-1,2.0169161E-2,3.8226295E6,3.2212665E6,3E0,6.125E0,5.826087E0,4E0,6.1666665E0,-1.8559715E-2,2.5828152E-3,5.2E1,1.5422696E7,5.4615383E0,5E0,3.2852924E7,9.969419E-1,2.329154E6,6.625E0,-7.674248E-3,5.5139135E-3,-2.5110529E-3,-2.3992555E-3,-8.6375914E-4,-1.7326738E-3,-1.4692517E-3,-1.0042575E-3,6.746465E-4,1.3524808E-2,1.8140835E-4,-2.772086E-4,1.678174E-3,-1.0892444E-4,3.6776864E-3,1.6183965E-3,1.4592393E-2,1.9755676E-2,-3.1151543E-3,2.6511326E-3,-4.942123E-4,-6.587176E-3,1.1233511E-2,-5.801963E-6,5.0759423E-3,3.4603395E-3,2.6835736E-3,1.0237136E-3],"split_indices":[0,0,0,0,7,4,2,6,6,6,0,6,4,4,6,6,0,2,2,7,2,0,0,0,6,2,2,6,4,6,2,0,0,0,0,0,0,0,0,0,0,0,0,0,0,0,0,0,0,0,0,0,0,0,0,0,0,0,0],"split_type":[0,0,0,0,0,0,0,0,0,0,0,0,0,0,0,0,0,0,0,0,0,0,0,0,0,0,0,0,0,0,0,0,0,0,0,0,0,0,0,0,0,0,0,0,0,0,0,0,0,0,0,0,0,0,0,0,0,0,0],"sum_hessian":[8E5,5.2616E5,2.7384E5,3.82539E5,1.43621E5,8.9169E4,1.84671E5,1.45328E5,2.37211E5,1.43614E5,7E0,8.6087E4,3.082E3,2.525E3,1.82146E5,2.5E1,1.45303E5,5.8365E4,1.78846E5,5.765E3,1.37849E5,6E0,1E0,1.5739E4,7.0348E4,5.63E2,2.519E3,2.306E3,2.19E2,2.7129E4,1.55017E5,7E0,1.8E1,8.6696E4,5.8607E4,4.0279E4,1.8086E4,1.58186E5,2.066E4,5.756E3,9E0,1.26105E5,1.1744E4,9.212E3,6.527E3,7.458E3,6.289E4,4.09E2,1.54E2,7.99E2,1.72E3,2.158E3,1.48E2,6.8E1,1.51E2,2.967E3,2.4162E4,1.4636E5,8.657E3],"tree_param":{"num_deleted":"0","num_feature":"9","num_nodes":"59","size_leaf_vector":"1"}},{"base_weights":[7.6173797E-7,-1.105439E-2,2.1788426E-2,-1.5941175E-2,1.5616991E-3,2.8534362E-2,1.9424152E-2,-2.2187335E-2,-1.2114368E-2,-3.0152977E-3,1.8275299E-3,2.6962206E-2,3.9135553E-2,1.8623317E-2,3.442148E-2,3.8785826E-2,-2.2192217E-2,-1.4617724E-2,-1.1588621E-2,-2.0603861E-3,-6.7314096E-2,1.6925494E-3,1.8071545E-2,2.59108E-2,3.8574364E-2,-5.842436E-3,4.0978312E-2,4.8100865E-3,1.9423766E-2,1.14087805E-1,1.5095597E-2,-7.002752E-3,2.0513E-2,-2.268485E-3,-2.1685283E-3,-2.7001665E-3,-1.42634E-3,-1.1643163E-3,1.5945692E-3,